digraph Tree {
node [shape=box] ;
0 [label="Previous_Cesarian_N <= 0.5\ngini = 0.5\nsamples = 28500\nvalue = [22505, 22495]\nclass = vaginal"] ;
1 [label="Induction_of_labor_Y <= 0.5\ngini = 0.121\nsamples = 6606\nvalue = [668, 9672]\nclass = c-section"] ;
0 -> 1 [labeldistance=2.5, labelangle=45, headlabel="True"] ;
2 [label="Previous_Cesarian_Y <= 0.5\ngini = 0.099\nsamples = 6342\nvalue = [518, 9384]\nclass = c-section"] ;
1 -> 2 ;
3 [label="Prior_Births_Living <= 2.5\ngini = 0.498\nsamples = 12\nvalue = [8, 9]\nclass = c-section"] ;
2 -> 3 ;
4 [label="Prior_Terminations <= 0.5\ngini = 0.219\nsamples = 5\nvalue = [1, 7]\nclass = c-section"] ;
3 -> 4 ;
5 [label="gini = 0.0\nsamples = 2\nvalue = [0, 4]\nclass = c-section"] ;
4 -> 5 ;
6 [label="Weight_Gain <= 38.0\ngini = 0.375\nsamples = 3\nvalue = [1, 3]\nclass = c-section"] ;
4 -> 6 ;
7 [label="gini = 0.0\nsamples = 2\nvalue = [0, 3]\nclass = c-section"] ;
6 -> 7 ;
8 [label="gini = 0.0\nsamples = 1\nvalue = [1, 0]\nclass = vaginal"] ;
6 -> 8 ;
9 [label="BMI <= 21.4\ngini = 0.346\nsamples = 7\nvalue = [7, 2]\nclass = vaginal"] ;
3 -> 9 ;
10 [label="gini = 0.0\nsamples = 1\nvalue = [0, 1]\nclass = c-section"] ;
9 -> 10 ;
11 [label="Weight_Gain <= 42.0\ngini = 0.219\nsamples = 6\nvalue = [7, 1]\nclass = vaginal"] ;
9 -> 11 ;
12 [label="Weight_Gain <= 33.5\ngini = 0.375\nsamples = 3\nvalue = [3, 1]\nclass = vaginal"] ;
11 -> 12 ;
13 [label="gini = 0.0\nsamples = 2\nvalue = [3, 0]\nclass = vaginal"] ;
12 -> 13 ;
14 [label="gini = 0.0\nsamples = 1\nvalue = [0, 1]\nclass = c-section"] ;
12 -> 14 ;
15 [label="gini = 0.0\nsamples = 3\nvalue = [4, 0]\nclass = vaginal"] ;
11 -> 15 ;
16 [label="Medical_Attendant <= 2.5\ngini = 0.098\nsamples = 6330\nvalue = [510, 9375]\nclass = c-section"] ;
2 -> 16 ;
17 [label="Age_of_Mother <= 39.5\ngini = 0.081\nsamples = 6232\nvalue = [414, 9325]\nclass = c-section"] ;
16 -> 17 ;
18 [label="Prior_Births_Living <= 8.5\ngini = 0.085\nsamples = 5867\nvalue = [408, 8762]\nclass = c-section"] ;
17 -> 18 ;
19 [label="#_of_Previous_Cesareans <= 1.5\ngini = 0.084\nsamples = 5857\nvalue = [402, 8757]\nclass = c-section"] ;
18 -> 19 ;
20 [label="Prior_Births_Dead <= 2.5\ngini = 0.115\nsamples = 3877\nvalue = [370, 5687]\nclass = c-section"] ;
19 -> 20 ;
21 [label="Prior_Births_Living <= 1.5\ngini = 0.115\nsamples = 3870\nvalue = [370, 5674]\nclass = c-section"] ;
20 -> 21 ;
22 [label="BMI <= 23.05\ngini = 0.08\nsamples = 3077\nvalue = [199, 4593]\nclass = c-section"] ;
21 -> 22 ;
23 [label="BMI <= 22.95\ngini = 0.13\nsamples = 714\nvalue = [78, 1036]\nclass = c-section"] ;
22 -> 23 ;
24 [label="Prior_Births_Living <= 0.5\ngini = 0.125\nsamples = 690\nvalue = [72, 1004]\nclass = c-section"] ;
23 -> 24 ;
25 [label="gini = 0.0\nsamples = 8\nvalue = [0, 12]\nclass = c-section"] ;
24 -> 25 ;
26 [label="Weight_Gain <= 80.0\ngini = 0.126\nsamples = 682\nvalue = [72, 992]\nclass = c-section"] ;
24 -> 26 ;
27 [label="Cigarette_Consumption <= 0.5\ngini = 0.121\nsamples = 672\nvalue = [68, 982]\nclass = c-section"] ;
26 -> 27 ;
28 [label="Mothers_Height_in_Inches <= 65.5\ngini = 0.132\nsamples = 618\nvalue = [68, 890]\nclass = c-section"] ;
27 -> 28 ;
29 [label="Mothers_Height_in_Inches <= 61.5\ngini = 0.108\nsamples = 434\nvalue = [39, 643]\nclass = c-section"] ;
28 -> 29 ;
30 [label="gini = 0.06\nsamples = 122\nvalue = [6, 187]\nclass = c-section"] ;
29 -> 30 ;
31 [label="gini = 0.126\nsamples = 312\nvalue = [33, 456]\nclass = c-section"] ;
29 -> 31 ;
32 [label="Prior_Births_Dead <= 1.0\ngini = 0.188\nsamples = 184\nvalue = [29, 247]\nclass = c-section"] ;
28 -> 32 ;
33 [label="gini = 0.183\nsamples = 183\nvalue = [28, 247]\nclass = c-section"] ;
32 -> 33 ;
34 [label="gini = 0.0\nsamples = 1\nvalue = [1, 0]\nclass = vaginal"] ;
32 -> 34 ;
35 [label="gini = 0.0\nsamples = 54\nvalue = [0, 92]\nclass = c-section"] ;
27 -> 35 ;
36 [label="Weight_Gain <= 85.0\ngini = 0.408\nsamples = 10\nvalue = [4, 10]\nclass = c-section"] ;
26 -> 36 ;
37 [label="gini = 0.0\nsamples = 1\nvalue = [2, 0]\nclass = vaginal"] ;
36 -> 37 ;
38 [label="Pre_Pregnancy_Weight <= 107.0\ngini = 0.278\nsamples = 9\nvalue = [2, 10]\nclass = c-section"] ;
36 -> 38 ;
39 [label="gini = 0.0\nsamples = 1\nvalue = [2, 0]\nclass = vaginal"] ;
38 -> 39 ;
40 [label="gini = 0.0\nsamples = 8\nvalue = [0, 10]\nclass = c-section"] ;
38 -> 40 ;
41 [label="Age_of_Mother <= 38.0\ngini = 0.266\nsamples = 24\nvalue = [6, 32]\nclass = c-section"] ;
23 -> 41 ;
42 [label="Age_of_Mother <= 26.0\ngini = 0.198\nsamples = 23\nvalue = [4, 32]\nclass = c-section"] ;
41 -> 42 ;
43 [label="Prior_Terminations <= 0.5\ngini = 0.444\nsamples = 2\nvalue = [2, 1]\nclass = vaginal"] ;
42 -> 43 ;
44 [label="gini = 0.0\nsamples = 1\nvalue = [2, 0]\nclass = vaginal"] ;
43 -> 44 ;
45 [label="gini = 0.0\nsamples = 1\nvalue = [0, 1]\nclass = c-section"] ;
43 -> 45 ;
46 [label="Prior_Terminations <= 1.5\ngini = 0.114\nsamples = 21\nvalue = [2, 31]\nclass = c-section"] ;
42 -> 46 ;
47 [label="Pre_Pregnancy_Weight <= 142.5\ngini = 0.064\nsamples = 18\nvalue = [1, 29]\nclass = c-section"] ;
46 -> 47 ;
48 [label="gini = 0.0\nsamples = 14\nvalue = [0, 26]\nclass = c-section"] ;
47 -> 48 ;
49 [label="Age_of_Mother <= 28.5\ngini = 0.375\nsamples = 4\nvalue = [1, 3]\nclass = c-section"] ;
47 -> 49 ;
50 [label="gini = 0.0\nsamples = 1\nvalue = [1, 0]\nclass = vaginal"] ;
49 -> 50 ;
51 [label="gini = 0.0\nsamples = 3\nvalue = [0, 3]\nclass = c-section"] ;
49 -> 51 ;
52 [label="Weight_Gain <= 17.0\ngini = 0.444\nsamples = 3\nvalue = [1, 2]\nclass = c-section"] ;
46 -> 52 ;
53 [label="gini = 0.0\nsamples = 1\nvalue = [1, 0]\nclass = vaginal"] ;
52 -> 53 ;
54 [label="gini = 0.0\nsamples = 2\nvalue = [0, 2]\nclass = c-section"] ;
52 -> 54 ;
55 [label="gini = 0.0\nsamples = 1\nvalue = [2, 0]\nclass = vaginal"] ;
41 -> 55 ;
56 [label="Pre_Pregnancy_Weight <= 687.0\ngini = 0.064\nsamples = 2363\nvalue = [121, 3557]\nclass = c-section"] ;
22 -> 56 ;
57 [label="Prior_Terminations <= 1.5\ngini = 0.06\nsamples = 2317\nvalue = [112, 3484]\nclass = c-section"] ;
56 -> 57 ;
58 [label="Prior_Births_Living <= 0.5\ngini = 0.065\nsamples = 2049\nvalue = [108, 3080]\nclass = c-section"] ;
57 -> 58 ;
59 [label="gini = 0.0\nsamples = 21\nvalue = [0, 37]\nclass = c-section"] ;
58 -> 59 ;
60 [label="Age_of_Mother <= 26.5\ngini = 0.066\nsamples = 2028\nvalue = [108, 3043]\nclass = c-section"] ;
58 -> 60 ;
61 [label="BMI <= 29.05\ngini = 0.098\nsamples = 590\nvalue = [47, 860]\nclass = c-section"] ;
60 -> 61 ;
62 [label="BMI <= 28.55\ngini = 0.14\nsamples = 236\nvalue = [27, 330]\nclass = c-section"] ;
61 -> 62 ;
63 [label="gini = 0.114\nsamples = 217\nvalue = [20, 309]\nclass = c-section"] ;
62 -> 63 ;
64 [label="gini = 0.375\nsamples = 19\nvalue = [7, 21]\nclass = c-section"] ;
62 -> 64 ;
65 [label="Weight_Gain <= 88.5\ngini = 0.07\nsamples = 354\nvalue = [20, 530]\nclass = c-section"] ;
61 -> 65 ;
66 [label="gini = 0.064\nsamples = 350\nvalue = [18, 526]\nclass = c-section"] ;
65 -> 66 ;
67 [label="gini = 0.444\nsamples = 4\nvalue = [2, 4]\nclass = c-section"] ;
65 -> 67 ;
68 [label="Mothers_Height_in_Inches <= 56.5\ngini = 0.053\nsamples = 1438\nvalue = [61, 2183]\nclass = c-section"] ;
60 -> 68 ;
69 [label="Mothers_Height_in_Inches <= 55.5\ngini = 0.408\nsamples = 5\nvalue = [2, 5]\nclass = c-section"] ;
68 -> 69 ;
70 [label="gini = 0.0\nsamples = 2\nvalue = [0, 2]\nclass = c-section"] ;
69 -> 70 ;
71 [label="gini = 0.48\nsamples = 3\nvalue = [2, 3]\nclass = c-section"] ;
69 -> 71 ;
72 [label="Cigarette_Consumption <= 0.5\ngini = 0.051\nsamples = 1433\nvalue = [59, 2178]\nclass = c-section"] ;
68 -> 72 ;
73 [label="gini = 0.054\nsamples = 1355\nvalue = [59, 2051]\nclass = c-section"] ;
72 -> 73 ;
74 [label="gini = 0.0\nsamples = 78\nvalue = [0, 127]\nclass = c-section"] ;
72 -> 74 ;
75 [label="Weight_Gain <= 42.5\ngini = 0.019\nsamples = 268\nvalue = [4, 404]\nclass = c-section"] ;
57 -> 75 ;
76 [label="Mothers_Height_in_Inches <= 59.5\ngini = 0.012\nsamples = 226\nvalue = [2, 342]\nclass = c-section"] ;
75 -> 76 ;
77 [label="Weight_Gain <= 19.5\ngini = 0.124\nsamples = 9\nvalue = [1, 14]\nclass = c-section"] ;
76 -> 77 ;
78 [label="gini = 0.0\nsamples = 5\nvalue = [0, 8]\nclass = c-section"] ;
77 -> 78 ;
79 [label="Age_of_Mother <= 31.0\ngini = 0.245\nsamples = 4\nvalue = [1, 6]\nclass = c-section"] ;
77 -> 79 ;
80 [label="gini = 0.0\nsamples = 3\nvalue = [0, 6]\nclass = c-section"] ;
79 -> 80 ;
81 [label="gini = 0.0\nsamples = 1\nvalue = [1, 0]\nclass = vaginal"] ;
79 -> 81 ;
82 [label="Cigarette_Consumption <= 7.5\ngini = 0.006\nsamples = 217\nvalue = [1, 328]\nclass = c-section"] ;
76 -> 82 ;
83 [label="gini = 0.0\nsamples = 198\nvalue = [0, 298]\nclass = c-section"] ;
82 -> 83 ;
84 [label="Mothers_Height_in_Inches <= 63.5\ngini = 0.062\nsamples = 19\nvalue = [1, 30]\nclass = c-section"] ;
82 -> 84 ;
85 [label="gini = 0.0\nsamples = 10\nvalue = [0, 18]\nclass = c-section"] ;
84 -> 85 ;
86 [label="gini = 0.142\nsamples = 9\nvalue = [1, 12]\nclass = c-section"] ;
84 -> 86 ;
87 [label="Weight_Gain <= 43.5\ngini = 0.061\nsamples = 42\nvalue = [2, 62]\nclass = c-section"] ;
75 -> 87 ;
88 [label="BMI <= 26.85\ngini = 0.5\nsamples = 3\nvalue = [2, 2]\nclass = vaginal"] ;
87 -> 88 ;
89 [label="gini = 0.0\nsamples = 1\nvalue = [2, 0]\nclass = vaginal"] ;
88 -> 89 ;
90 [label="gini = 0.0\nsamples = 2\nvalue = [0, 2]\nclass = c-section"] ;
88 -> 90 ;
91 [label="gini = 0.0\nsamples = 39\nvalue = [0, 60]\nclass = c-section"] ;
87 -> 91 ;
92 [label="Marital_Status_  <= 0.5\ngini = 0.195\nsamples = 46\nvalue = [9, 73]\nclass = c-section"] ;
56 -> 92 ;
93 [label="Age_of_Mother <= 22.5\ngini = 0.219\nsamples = 37\nvalue = [8, 56]\nclass = c-section"] ;
92 -> 93 ;
94 [label="Mothers_Height_in_Inches <= 63.0\ngini = 0.49\nsamples = 3\nvalue = [4, 3]\nclass = vaginal"] ;
93 -> 94 ;
95 [label="gini = 0.0\nsamples = 2\nvalue = [0, 3]\nclass = c-section"] ;
94 -> 95 ;
96 [label="gini = 0.0\nsamples = 1\nvalue = [4, 0]\nclass = vaginal"] ;
94 -> 96 ;
97 [label="Cigarette_Consumption <= 59.5\ngini = 0.131\nsamples = 34\nvalue = [4, 53]\nclass = c-section"] ;
93 -> 97 ;
98 [label="Prior_Terminations <= 0.5\ngini = 0.105\nsamples = 32\nvalue = [3, 51]\nclass = c-section"] ;
97 -> 98 ;
99 [label="Cigarette_Consumption <= 10.0\ngini = 0.153\nsamples = 21\nvalue = [3, 33]\nclass = c-section"] ;
98 -> 99 ;
100 [label="gini = 0.17\nsamples = 18\nvalue = [3, 29]\nclass = c-section"] ;
99 -> 100 ;
101 [label="gini = 0.0\nsamples = 3\nvalue = [0, 4]\nclass = c-section"] ;
99 -> 101 ;
102 [label="gini = 0.0\nsamples = 11\nvalue = [0, 18]\nclass = c-section"] ;
98 -> 102 ;
103 [label="Prior_Terminations <= 0.5\ngini = 0.444\nsamples = 2\nvalue = [1, 2]\nclass = c-section"] ;
97 -> 103 ;
104 [label="gini = 0.0\nsamples = 1\nvalue = [0, 2]\nclass = c-section"] ;
103 -> 104 ;
105 [label="gini = 0.0\nsamples = 1\nvalue = [1, 0]\nclass = vaginal"] ;
103 -> 105 ;
106 [label="Age_of_Mother <= 31.5\ngini = 0.105\nsamples = 9\nvalue = [1, 17]\nclass = c-section"] ;
92 -> 106 ;
107 [label="gini = 0.0\nsamples = 6\nvalue = [0, 10]\nclass = c-section"] ;
106 -> 107 ;
108 [label="Age_of_Mother <= 35.0\ngini = 0.219\nsamples = 3\nvalue = [1, 7]\nclass = c-section"] ;
106 -> 108 ;
109 [label="gini = 0.0\nsamples = 1\nvalue = [1, 0]\nclass = vaginal"] ;
108 -> 109 ;
110 [label="gini = 0.0\nsamples = 2\nvalue = [0, 7]\nclass = c-section"] ;
108 -> 110 ;
111 [label="BMI <= 26.7\ngini = 0.236\nsamples = 793\nvalue = [171, 1081]\nclass = c-section"] ;
21 -> 111 ;
112 [label="Marital_Status_  <= 0.5\ngini = 0.313\nsamples = 340\nvalue = [105, 436]\nclass = c-section"] ;
111 -> 112 ;
113 [label="Pre_Pregnancy_Weight <= 115.5\ngini = 0.304\nsamples = 307\nvalue = [91, 395]\nclass = c-section"] ;
112 -> 113 ;
114 [label="Pre_Pregnancy_Weight <= 109.0\ngini = 0.388\nsamples = 48\nvalue = [20, 56]\nclass = c-section"] ;
113 -> 114 ;
115 [label="Age_of_Mother <= 23.5\ngini = 0.157\nsamples = 21\nvalue = [3, 32]\nclass = c-section"] ;
114 -> 115 ;
116 [label="Prior_Terminations <= 0.5\ngini = 0.5\nsamples = 2\nvalue = [1, 1]\nclass = vaginal"] ;
115 -> 116 ;
117 [label="gini = 0.0\nsamples = 1\nvalue = [0, 1]\nclass = c-section"] ;
116 -> 117 ;
118 [label="gini = 0.0\nsamples = 1\nvalue = [1, 0]\nclass = vaginal"] ;
116 -> 118 ;
119 [label="Age_of_Mother <= 37.5\ngini = 0.114\nsamples = 19\nvalue = [2, 31]\nclass = c-section"] ;
115 -> 119 ;
120 [label="Age_of_Mother <= 27.5\ngini = 0.062\nsamples = 17\nvalue = [1, 30]\nclass = c-section"] ;
119 -> 120 ;
121 [label="gini = 0.219\nsamples = 5\nvalue = [1, 7]\nclass = c-section"] ;
120 -> 121 ;
122 [label="gini = 0.0\nsamples = 12\nvalue = [0, 23]\nclass = c-section"] ;
120 -> 122 ;
123 [label="Weight_Gain <= 38.0\ngini = 0.5\nsamples = 2\nvalue = [1, 1]\nclass = vaginal"] ;
119 -> 123 ;
124 [label="gini = 0.0\nsamples = 1\nvalue = [0, 1]\nclass = c-section"] ;
123 -> 124 ;
125 [label="gini = 0.0\nsamples = 1\nvalue = [1, 0]\nclass = vaginal"] ;
123 -> 125 ;
126 [label="Mothers_Height_in_Inches <= 62.5\ngini = 0.485\nsamples = 27\nvalue = [17, 24]\nclass = c-section"] ;
114 -> 126 ;
127 [label="Prior_Births_Living <= 4.0\ngini = 0.375\nsamples = 13\nvalue = [5, 15]\nclass = c-section"] ;
126 -> 127 ;
128 [label="Cigarette_Consumption <= 10.0\ngini = 0.278\nsamples = 12\nvalue = [3, 15]\nclass = c-section"] ;
127 -> 128 ;
129 [label="gini = 0.219\nsamples = 10\nvalue = [2, 14]\nclass = c-section"] ;
128 -> 129 ;
130 [label="gini = 0.5\nsamples = 2\nvalue = [1, 1]\nclass = vaginal"] ;
128 -> 130 ;
131 [label="gini = 0.0\nsamples = 1\nvalue = [2, 0]\nclass = vaginal"] ;
127 -> 131 ;
132 [label="BMI <= 18.5\ngini = 0.49\nsamples = 14\nvalue = [12, 9]\nclass = vaginal"] ;
126 -> 132 ;
133 [label="Weight_Gain <= 45.5\ngini = 0.278\nsamples = 4\nvalue = [1, 5]\nclass = c-section"] ;
132 -> 133 ;
134 [label="gini = 0.0\nsamples = 3\nvalue = [0, 5]\nclass = c-section"] ;
133 -> 134 ;
135 [label="gini = 0.0\nsamples = 1\nvalue = [1, 0]\nclass = vaginal"] ;
133 -> 135 ;
136 [label="Prior_Births_Living <= 3.5\ngini = 0.391\nsamples = 10\nvalue = [11, 4]\nclass = vaginal"] ;
132 -> 136 ;
137 [label="gini = 0.26\nsamples = 9\nvalue = [11, 2]\nclass = vaginal"] ;
136 -> 137 ;
138 [label="gini = 0.0\nsamples = 1\nvalue = [0, 2]\nclass = c-section"] ;
136 -> 138 ;
139 [label="Mothers_Height_in_Inches <= 60.5\ngini = 0.286\nsamples = 259\nvalue = [71, 339]\nclass = c-section"] ;
113 -> 139 ;
140 [label="gini = 0.0\nsamples = 15\nvalue = [0, 31]\nclass = c-section"] ;
139 -> 140 ;
141 [label="Prior_Births_Living <= 2.5\ngini = 0.304\nsamples = 244\nvalue = [71, 308]\nclass = c-section"] ;
139 -> 141 ;
142 [label="Weight_Gain <= 32.5\ngini = 0.233\nsamples = 161\nvalue = [32, 206]\nclass = c-section"] ;
141 -> 142 ;
143 [label="BMI <= 21.7\ngini = 0.308\nsamples = 80\nvalue = [23, 98]\nclass = c-section"] ;
142 -> 143 ;
144 [label="gini = 0.071\nsamples = 15\nvalue = [1, 26]\nclass = c-section"] ;
143 -> 144 ;
145 [label="gini = 0.359\nsamples = 65\nvalue = [22, 72]\nclass = c-section"] ;
143 -> 145 ;
146 [label="Medical_Attendant <= 1.5\ngini = 0.142\nsamples = 81\nvalue = [9, 108]\nclass = c-section"] ;
142 -> 146 ;
147 [label="gini = 0.155\nsamples = 77\nvalue = [9, 97]\nclass = c-section"] ;
146 -> 147 ;
148 [label="gini = 0.0\nsamples = 4\nvalue = [0, 11]\nclass = c-section"] ;
146 -> 148 ;
149 [label="Age_of_Mother <= 23.5\ngini = 0.4\nsamples = 83\nvalue = [39, 102]\nclass = c-section"] ;
141 -> 149 ;
150 [label="Age_of_Mother <= 22.0\ngini = 0.32\nsamples = 2\nvalue = [4, 1]\nclass = vaginal"] ;
149 -> 150 ;
151 [label="gini = 0.0\nsamples = 1\nvalue = [0, 1]\nclass = c-section"] ;
150 -> 151 ;
152 [label="gini = 0.0\nsamples = 1\nvalue = [4, 0]\nclass = vaginal"] ;
150 -> 152 ;
153 [label="Prior_Births_Dead <= 0.5\ngini = 0.382\nsamples = 81\nvalue = [35, 101]\nclass = c-section"] ;
149 -> 153 ;
154 [label="gini = 0.375\nsamples = 78\nvalue = [33, 99]\nclass = c-section"] ;
153 -> 154 ;
155 [label="gini = 0.5\nsamples = 3\nvalue = [2, 2]\nclass = vaginal"] ;
153 -> 155 ;
156 [label="Weight_Gain <= 33.5\ngini = 0.38\nsamples = 33\nvalue = [14, 41]\nclass = c-section"] ;
112 -> 156 ;
157 [label="Pre_Pregnancy_Weight <= 145.5\ngini = 0.467\nsamples = 22\nvalue = [13, 22]\nclass = c-section"] ;
156 -> 157 ;
158 [label="Age_of_Mother <= 33.0\ngini = 0.236\nsamples = 15\nvalue = [3, 19]\nclass = c-section"] ;
157 -> 158 ;
159 [label="gini = 0.0\nsamples = 10\nvalue = [0, 16]\nclass = c-section"] ;
158 -> 159 ;
160 [label="Pre_Pregnancy_Weight <= 129.5\ngini = 0.5\nsamples = 5\nvalue = [3, 3]\nclass = vaginal"] ;
158 -> 160 ;
161 [label="Weight_Gain <= 24.5\ngini = 0.375\nsamples = 3\nvalue = [3, 1]\nclass = vaginal"] ;
160 -> 161 ;
162 [label="gini = 0.5\nsamples = 2\nvalue = [1, 1]\nclass = vaginal"] ;
161 -> 162 ;
163 [label="gini = 0.0\nsamples = 1\nvalue = [2, 0]\nclass = vaginal"] ;
161 -> 163 ;
164 [label="gini = 0.0\nsamples = 2\nvalue = [0, 2]\nclass = c-section"] ;
160 -> 164 ;
165 [label="Age_of_Mother <= 33.5\ngini = 0.355\nsamples = 7\nvalue = [10, 3]\nclass = vaginal"] ;
157 -> 165 ;
166 [label="BMI <= 25.05\ngini = 0.165\nsamples = 5\nvalue = [10, 1]\nclass = vaginal"] ;
165 -> 166 ;
167 [label="gini = 0.0\nsamples = 3\nvalue = [7, 0]\nclass = vaginal"] ;
166 -> 167 ;
168 [label="Age_of_Mother <= 28.5\ngini = 0.375\nsamples = 2\nvalue = [3, 1]\nclass = vaginal"] ;
166 -> 168 ;
169 [label="gini = 0.0\nsamples = 1\nvalue = [0, 1]\nclass = c-section"] ;
168 -> 169 ;
170 [label="gini = 0.0\nsamples = 1\nvalue = [3, 0]\nclass = vaginal"] ;
168 -> 170 ;
171 [label="gini = 0.0\nsamples = 2\nvalue = [0, 2]\nclass = c-section"] ;
165 -> 171 ;
172 [label="Pre_Pregnancy_Weight <= 127.5\ngini = 0.095\nsamples = 11\nvalue = [1, 19]\nclass = c-section"] ;
156 -> 172 ;
173 [label="gini = 0.0\nsamples = 8\nvalue = [0, 15]\nclass = c-section"] ;
172 -> 173 ;
174 [label="Prior_Terminations <= 0.5\ngini = 0.32\nsamples = 3\nvalue = [1, 4]\nclass = c-section"] ;
172 -> 174 ;
175 [label="Mothers_Height_in_Inches <= 66.5\ngini = 0.444\nsamples = 2\nvalue = [1, 2]\nclass = c-section"] ;
174 -> 175 ;
176 [label="gini = 0.0\nsamples = 1\nvalue = [1, 0]\nclass = vaginal"] ;
175 -> 176 ;
177 [label="gini = 0.0\nsamples = 1\nvalue = [0, 2]\nclass = c-section"] ;
175 -> 177 ;
178 [label="gini = 0.0\nsamples = 1\nvalue = [0, 2]\nclass = c-section"] ;
174 -> 178 ;
179 [label="Cigarette_Consumption <= 6.5\ngini = 0.168\nsamples = 453\nvalue = [66, 645]\nclass = c-section"] ;
111 -> 179 ;
180 [label="Prior_Terminations <= 0.5\ngini = 0.186\nsamples = 406\nvalue = [65, 561]\nclass = c-section"] ;
179 -> 180 ;
181 [label="BMI <= 78.65\ngini = 0.147\nsamples = 250\nvalue = [31, 357]\nclass = c-section"] ;
180 -> 181 ;
182 [label="Age_of_Mother <= 28.5\ngini = 0.132\nsamples = 245\nvalue = [27, 352]\nclass = c-section"] ;
181 -> 182 ;
183 [label="Weight_Gain <= 83.0\ngini = 0.198\nsamples = 86\nvalue = [14, 112]\nclass = c-section"] ;
182 -> 183 ;
184 [label="BMI <= 40.05\ngini = 0.177\nsamples = 84\nvalue = [12, 110]\nclass = c-section"] ;
183 -> 184 ;
185 [label="gini = 0.137\nsamples = 73\nvalue = [8, 100]\nclass = c-section"] ;
184 -> 185 ;
186 [label="gini = 0.408\nsamples = 11\nvalue = [4, 10]\nclass = c-section"] ;
184 -> 186 ;
187 [label="Weight_Gain <= 87.5\ngini = 0.5\nsamples = 2\nvalue = [2, 2]\nclass = vaginal"] ;
183 -> 187 ;
188 [label="gini = 0.0\nsamples = 1\nvalue = [2, 0]\nclass = vaginal"] ;
187 -> 188 ;
189 [label="gini = 0.0\nsamples = 1\nvalue = [0, 2]\nclass = c-section"] ;
187 -> 189 ;
190 [label="Prior_Births_Living <= 4.5\ngini = 0.097\nsamples = 159\nvalue = [13, 240]\nclass = c-section"] ;
182 -> 190 ;
191 [label="BMI <= 26.85\ngini = 0.103\nsamples = 152\nvalue = [13, 226]\nclass = c-section"] ;
190 -> 191 ;
192 [label="gini = 0.5\nsamples = 2\nvalue = [1, 1]\nclass = vaginal"] ;
191 -> 192 ;
193 [label="gini = 0.096\nsamples = 150\nvalue = [12, 225]\nclass = c-section"] ;
191 -> 193 ;
194 [label="gini = 0.0\nsamples = 7\nvalue = [0, 14]\nclass = c-section"] ;
190 -> 194 ;
195 [label="Age_of_Mother <= 28.5\ngini = 0.494\nsamples = 5\nvalue = [4, 5]\nclass = c-section"] ;
181 -> 195 ;
196 [label="gini = 0.0\nsamples = 2\nvalue = [4, 0]\nclass = vaginal"] ;
195 -> 196 ;
197 [label="gini = 0.0\nsamples = 3\nvalue = [0, 5]\nclass = c-section"] ;
195 -> 197 ;
198 [label="Pre_Pregnancy_Weight <= 236.5\ngini = 0.245\nsamples = 156\nvalue = [34, 204]\nclass = c-section"] ;
180 -> 198 ;
199 [label="Cigarette_Consumption <= 5.5\ngini = 0.282\nsamples = 123\nvalue = [32, 156]\nclass = c-section"] ;
198 -> 199 ;
200 [label="Prior_Births_Living <= 2.5\ngini = 0.271\nsamples = 122\nvalue = [30, 156]\nclass = c-section"] ;
199 -> 200 ;
201 [label="Cigarette_Consumption <= 1.0\ngini = 0.123\nsamples = 68\nvalue = [7, 99]\nclass = c-section"] ;
200 -> 201 ;
202 [label="gini = 0.11\nsamples = 66\nvalue = [6, 97]\nclass = c-section"] ;
201 -> 202 ;
203 [label="gini = 0.444\nsamples = 2\nvalue = [1, 2]\nclass = c-section"] ;
201 -> 203 ;
204 [label="Medical_Attendant <= 1.5\ngini = 0.41\nsamples = 54\nvalue = [23, 57]\nclass = c-section"] ;
200 -> 204 ;
205 [label="gini = 0.438\nsamples = 49\nvalue = [23, 48]\nclass = c-section"] ;
204 -> 205 ;
206 [label="gini = 0.0\nsamples = 5\nvalue = [0, 9]\nclass = c-section"] ;
204 -> 206 ;
207 [label="gini = 0.0\nsamples = 1\nvalue = [2, 0]\nclass = vaginal"] ;
199 -> 207 ;
208 [label="BMI <= 42.55\ngini = 0.077\nsamples = 33\nvalue = [2, 48]\nclass = c-section"] ;
198 -> 208 ;
209 [label="Prior_Births_Living <= 2.5\ngini = 0.208\nsamples = 14\nvalue = [2, 15]\nclass = c-section"] ;
208 -> 209 ;
210 [label="gini = 0.0\nsamples = 9\nvalue = [0, 11]\nclass = c-section"] ;
209 -> 210 ;
211 [label="Mothers_Height_in_Inches <= 65.5\ngini = 0.444\nsamples = 5\nvalue = [2, 4]\nclass = c-section"] ;
209 -> 211 ;
212 [label="gini = 0.0\nsamples = 2\nvalue = [0, 3]\nclass = c-section"] ;
211 -> 212 ;
213 [label="gini = 0.444\nsamples = 3\nvalue = [2, 1]\nclass = vaginal"] ;
211 -> 213 ;
214 [label="gini = 0.0\nsamples = 19\nvalue = [0, 33]\nclass = c-section"] ;
208 -> 214 ;
215 [label="Age_of_Mother <= 29.5\ngini = 0.023\nsamples = 47\nvalue = [1, 84]\nclass = c-section"] ;
179 -> 215 ;
216 [label="gini = 0.0\nsamples = 27\nvalue = [0, 48]\nclass = c-section"] ;
215 -> 216 ;
217 [label="Age_of_Mother <= 30.5\ngini = 0.053\nsamples = 20\nvalue = [1, 36]\nclass = c-section"] ;
215 -> 217 ;
218 [label="Prior_Terminations <= 0.5\ngini = 0.18\nsamples = 5\nvalue = [1, 9]\nclass = c-section"] ;
217 -> 218 ;
219 [label="Mothers_Height_in_Inches <= 65.0\ngini = 0.278\nsamples = 3\nvalue = [1, 5]\nclass = c-section"] ;
218 -> 219 ;
220 [label="BMI <= 35.7\ngini = 0.444\nsamples = 2\nvalue = [1, 2]\nclass = c-section"] ;
219 -> 220 ;
221 [label="gini = 0.0\nsamples = 1\nvalue = [0, 2]\nclass = c-section"] ;
220 -> 221 ;
222 [label="gini = 0.0\nsamples = 1\nvalue = [1, 0]\nclass = vaginal"] ;
220 -> 222 ;
223 [label="gini = 0.0\nsamples = 1\nvalue = [0, 3]\nclass = c-section"] ;
219 -> 223 ;
224 [label="gini = 0.0\nsamples = 2\nvalue = [0, 4]\nclass = c-section"] ;
218 -> 224 ;
225 [label="gini = 0.0\nsamples = 15\nvalue = [0, 27]\nclass = c-section"] ;
217 -> 225 ;
226 [label="gini = 0.0\nsamples = 7\nvalue = [0, 13]\nclass = c-section"] ;
20 -> 226 ;
227 [label="Mothers_Height_in_Inches <= 60.5\ngini = 0.02\nsamples = 1980\nvalue = [32, 3070]\nclass = c-section"] ;
19 -> 227 ;
228 [label="Pre_Pregnancy_Weight <= 229.0\ngini = 0.035\nsamples = 286\nvalue = [8, 438]\nclass = c-section"] ;
227 -> 228 ;
229 [label="Weight_Gain <= 6.5\ngini = 0.028\nsamples = 273\nvalue = [6, 417]\nclass = c-section"] ;
228 -> 229 ;
230 [label="Prior_Births_Living <= 3.5\ngini = 0.108\nsamples = 25\nvalue = [2, 33]\nclass = c-section"] ;
229 -> 230 ;
231 [label="Marital_Status_  <= 0.5\ngini = 0.062\nsamples = 21\nvalue = [1, 30]\nclass = c-section"] ;
230 -> 231 ;
232 [label="gini = 0.0\nsamples = 12\nvalue = [0, 17]\nclass = c-section"] ;
231 -> 232 ;
233 [label="Weight_Gain <= 4.5\ngini = 0.133\nsamples = 9\nvalue = [1, 13]\nclass = c-section"] ;
231 -> 233 ;
234 [label="gini = 0.0\nsamples = 8\nvalue = [0, 13]\nclass = c-section"] ;
233 -> 234 ;
235 [label="gini = 0.0\nsamples = 1\nvalue = [1, 0]\nclass = vaginal"] ;
233 -> 235 ;
236 [label="Pre_Pregnancy_Weight <= 160.5\ngini = 0.375\nsamples = 4\nvalue = [1, 3]\nclass = c-section"] ;
230 -> 236 ;
237 [label="gini = 0.0\nsamples = 1\nvalue = [1, 0]\nclass = vaginal"] ;
236 -> 237 ;
238 [label="gini = 0.0\nsamples = 3\nvalue = [0, 3]\nclass = c-section"] ;
236 -> 238 ;
239 [label="Pre_Pregnancy_Weight <= 156.5\ngini = 0.02\nsamples = 248\nvalue = [4, 384]\nclass = c-section"] ;
229 -> 239 ;
240 [label="Cigarette_Consumption <= 3.5\ngini = 0.007\nsamples = 175\nvalue = [1, 273]\nclass = c-section"] ;
239 -> 240 ;
241 [label="gini = 0.0\nsamples = 156\nvalue = [0, 245]\nclass = c-section"] ;
240 -> 241 ;
242 [label="BMI <= 24.9\ngini = 0.067\nsamples = 19\nvalue = [1, 28]\nclass = c-section"] ;
240 -> 242 ;
243 [label="gini = 0.0\nsamples = 11\nvalue = [0, 16]\nclass = c-section"] ;
242 -> 243 ;
244 [label="Cigarette_Consumption <= 4.5\ngini = 0.142\nsamples = 8\nvalue = [1, 12]\nclass = c-section"] ;
242 -> 244 ;
245 [label="gini = 0.0\nsamples = 1\nvalue = [1, 0]\nclass = vaginal"] ;
244 -> 245 ;
246 [label="gini = 0.0\nsamples = 7\nvalue = [0, 12]\nclass = c-section"] ;
244 -> 246 ;
247 [label="Pre_Pregnancy_Weight <= 160.5\ngini = 0.051\nsamples = 73\nvalue = [3, 111]\nclass = c-section"] ;
239 -> 247 ;
248 [label="Mothers_Height_in_Inches <= 59.5\ngini = 0.255\nsamples = 14\nvalue = [3, 17]\nclass = c-section"] ;
247 -> 248 ;
249 [label="Age_of_Mother <= 29.0\ngini = 0.444\nsamples = 3\nvalue = [2, 4]\nclass = c-section"] ;
248 -> 249 ;
250 [label="Prior_Terminations <= 0.5\ngini = 0.5\nsamples = 2\nvalue = [2, 2]\nclass = vaginal"] ;
249 -> 250 ;
251 [label="gini = 0.0\nsamples = 1\nvalue = [2, 0]\nclass = vaginal"] ;
250 -> 251 ;
252 [label="gini = 0.0\nsamples = 1\nvalue = [0, 2]\nclass = c-section"] ;
250 -> 252 ;
253 [label="gini = 0.0\nsamples = 1\nvalue = [0, 2]\nclass = c-section"] ;
249 -> 253 ;
254 [label="Prior_Terminations <= 0.5\ngini = 0.133\nsamples = 11\nvalue = [1, 13]\nclass = c-section"] ;
248 -> 254 ;
255 [label="Prior_Births_Living <= 2.5\ngini = 0.245\nsamples = 6\nvalue = [1, 6]\nclass = c-section"] ;
254 -> 255 ;
256 [label="Weight_Gain <= 21.5\ngini = 0.32\nsamples = 4\nvalue = [1, 4]\nclass = c-section"] ;
255 -> 256 ;
257 [label="gini = 0.0\nsamples = 2\nvalue = [0, 3]\nclass = c-section"] ;
256 -> 257 ;
258 [label="gini = 0.5\nsamples = 2\nvalue = [1, 1]\nclass = vaginal"] ;
256 -> 258 ;
259 [label="gini = 0.0\nsamples = 2\nvalue = [0, 2]\nclass = c-section"] ;
255 -> 259 ;
260 [label="gini = 0.0\nsamples = 5\nvalue = [0, 7]\nclass = c-section"] ;
254 -> 260 ;
261 [label="gini = 0.0\nsamples = 59\nvalue = [0, 94]\nclass = c-section"] ;
247 -> 261 ;
262 [label="NO_MORBIDITY <= 0.5\ngini = 0.159\nsamples = 13\nvalue = [2, 21]\nclass = c-section"] ;
228 -> 262 ;
263 [label="gini = 0.0\nsamples = 1\nvalue = [1, 0]\nclass = vaginal"] ;
262 -> 263 ;
264 [label="Prior_Births_Living <= 2.5\ngini = 0.087\nsamples = 12\nvalue = [1, 21]\nclass = c-section"] ;
262 -> 264 ;
265 [label="Age_of_Mother <= 35.0\ngini = 0.245\nsamples = 5\nvalue = [1, 6]\nclass = c-section"] ;
264 -> 265 ;
266 [label="gini = 0.0\nsamples = 4\nvalue = [0, 6]\nclass = c-section"] ;
265 -> 266 ;
267 [label="gini = 0.0\nsamples = 1\nvalue = [1, 0]\nclass = vaginal"] ;
265 -> 267 ;
268 [label="gini = 0.0\nsamples = 7\nvalue = [0, 15]\nclass = c-section"] ;
264 -> 268 ;
269 [label="Cigarette_Consumption <= 0.5\ngini = 0.018\nsamples = 1694\nvalue = [24, 2632]\nclass = c-section"] ;
227 -> 269 ;
270 [label="Weight_Gain <= 12.5\ngini = 0.02\nsamples = 1469\nvalue = [23, 2281]\nclass = c-section"] ;
269 -> 270 ;
271 [label="Pre_Pregnancy_Weight <= 136.5\ngini = 0.04\nsamples = 240\nvalue = [8, 380]\nclass = c-section"] ;
270 -> 271 ;
272 [label="Age_of_Mother <= 34.0\ngini = 0.308\nsamples = 12\nvalue = [4, 17]\nclass = c-section"] ;
271 -> 272 ;
273 [label="#_of_Previous_Cesareans <= 3.0\ngini = 0.463\nsamples = 6\nvalue = [4, 7]\nclass = c-section"] ;
272 -> 273 ;
274 [label="NO_MORBIDITY <= 0.5\ngini = 0.48\nsamples = 5\nvalue = [4, 6]\nclass = c-section"] ;
273 -> 274 ;
275 [label="gini = 0.0\nsamples = 1\nvalue = [0, 2]\nclass = c-section"] ;
274 -> 275 ;
276 [label="Prior_Terminations <= 0.5\ngini = 0.5\nsamples = 4\nvalue = [4, 4]\nclass = vaginal"] ;
274 -> 276 ;
277 [label="Age_of_Mother <= 28.0\ngini = 0.32\nsamples = 3\nvalue = [1, 4]\nclass = c-section"] ;
276 -> 277 ;
278 [label="gini = 0.0\nsamples = 1\nvalue = [1, 0]\nclass = vaginal"] ;
277 -> 278 ;
279 [label="gini = 0.0\nsamples = 2\nvalue = [0, 4]\nclass = c-section"] ;
277 -> 279 ;
280 [label="gini = 0.0\nsamples = 1\nvalue = [3, 0]\nclass = vaginal"] ;
276 -> 280 ;
281 [label="gini = 0.0\nsamples = 1\nvalue = [0, 1]\nclass = c-section"] ;
273 -> 281 ;
282 [label="gini = 0.0\nsamples = 6\nvalue = [0, 10]\nclass = c-section"] ;
272 -> 282 ;
283 [label="Pre_Pregnancy_Weight <= 169.0\ngini = 0.022\nsamples = 228\nvalue = [4, 363]\nclass = c-section"] ;
271 -> 283 ;
284 [label="BMI <= 29.7\ngini = 0.116\nsamples = 42\nvalue = [4, 61]\nclass = c-section"] ;
283 -> 284 ;
285 [label="Weight_Gain <= 10.5\ngini = 0.04\nsamples = 34\nvalue = [1, 48]\nclass = c-section"] ;
284 -> 285 ;
286 [label="gini = 0.0\nsamples = 24\nvalue = [0, 32]\nclass = c-section"] ;
285 -> 286 ;
287 [label="Weight_Gain <= 11.5\ngini = 0.111\nsamples = 10\nvalue = [1, 16]\nclass = c-section"] ;
285 -> 287 ;
288 [label="#_of_Previous_Cesareans <= 2.5\ngini = 0.375\nsamples = 4\nvalue = [1, 3]\nclass = c-section"] ;
287 -> 288 ;
289 [label="gini = 0.444\nsamples = 3\nvalue = [1, 2]\nclass = c-section"] ;
288 -> 289 ;
290 [label="gini = 0.0\nsamples = 1\nvalue = [0, 1]\nclass = c-section"] ;
288 -> 290 ;
291 [label="gini = 0.0\nsamples = 6\nvalue = [0, 13]\nclass = c-section"] ;
287 -> 291 ;
292 [label="Prior_Terminations <= 0.5\ngini = 0.305\nsamples = 8\nvalue = [3, 13]\nclass = c-section"] ;
284 -> 292 ;
293 [label="BMI <= 30.1\ngini = 0.375\nsamples = 6\nvalue = [3, 9]\nclass = c-section"] ;
292 -> 293 ;
294 [label="gini = 0.0\nsamples = 1\nvalue = [3, 0]\nclass = vaginal"] ;
293 -> 294 ;
295 [label="gini = 0.0\nsamples = 5\nvalue = [0, 9]\nclass = c-section"] ;
293 -> 295 ;
296 [label="gini = 0.0\nsamples = 2\nvalue = [0, 4]\nclass = c-section"] ;
292 -> 296 ;
297 [label="gini = 0.0\nsamples = 186\nvalue = [0, 302]\nclass = c-section"] ;
283 -> 297 ;
298 [label="Age_of_Mother <= 30.5\ngini = 0.016\nsamples = 1229\nvalue = [15, 1901]\nclass = c-section"] ;
270 -> 298 ;
299 [label="Mothers_Height_in_Inches <= 64.5\ngini = 0.032\nsamples = 518\nvalue = [13, 784]\nclass = c-section"] ;
298 -> 299 ;
300 [label="NO_MORBIDITY <= 0.5\ngini = 0.012\nsamples = 329\nvalue = [3, 499]\nclass = c-section"] ;
299 -> 300 ;
301 [label="Induction_of_labor_N <= 0.5\ngini = 0.444\nsamples = 4\nvalue = [2, 4]\nclass = c-section"] ;
300 -> 301 ;
302 [label="gini = 0.0\nsamples = 1\nvalue = [2, 0]\nclass = vaginal"] ;
301 -> 302 ;
303 [label="gini = 0.0\nsamples = 3\nvalue = [0, 4]\nclass = c-section"] ;
301 -> 303 ;
304 [label="Weight_Gain <= 20.5\ngini = 0.004\nsamples = 325\nvalue = [1, 495]\nclass = c-section"] ;
300 -> 304 ;
305 [label="Mothers_Height_in_Inches <= 63.5\ngini = 0.019\nsamples = 66\nvalue = [1, 104]\nclass = c-section"] ;
304 -> 305 ;
306 [label="gini = 0.0\nsamples = 51\nvalue = [0, 80]\nclass = c-section"] ;
305 -> 306 ;
307 [label="Prior_Births_Living <= 2.5\ngini = 0.077\nsamples = 15\nvalue = [1, 24]\nclass = c-section"] ;
305 -> 307 ;
308 [label="gini = 0.0\nsamples = 7\nvalue = [0, 13]\nclass = c-section"] ;
307 -> 308 ;
309 [label="gini = 0.153\nsamples = 8\nvalue = [1, 11]\nclass = c-section"] ;
307 -> 309 ;
310 [label="gini = 0.0\nsamples = 259\nvalue = [0, 391]\nclass = c-section"] ;
304 -> 310 ;
311 [label="Pre_Pregnancy_Weight <= 226.5\ngini = 0.065\nsamples = 189\nvalue = [10, 285]\nclass = c-section"] ;
299 -> 311 ;
312 [label="Weight_Gain <= 26.5\ngini = 0.083\nsamples = 138\nvalue = [9, 198]\nclass = c-section"] ;
311 -> 312 ;
313 [label="gini = 0.0\nsamples = 36\nvalue = [0, 58]\nclass = c-section"] ;
312 -> 313 ;
314 [label="Pre_Pregnancy_Weight <= 217.0\ngini = 0.114\nsamples = 102\nvalue = [9, 140]\nclass = c-section"] ;
312 -> 314 ;
315 [label="Prior_Births_Dead <= 0.5\ngini = 0.068\nsamples = 97\nvalue = [5, 137]\nclass = c-section"] ;
314 -> 315 ;
316 [label="gini = 0.072\nsamples = 92\nvalue = [5, 128]\nclass = c-section"] ;
315 -> 316 ;
317 [label="gini = 0.0\nsamples = 5\nvalue = [0, 9]\nclass = c-section"] ;
315 -> 317 ;
318 [label="BMI <= 34.25\ngini = 0.49\nsamples = 5\nvalue = [4, 3]\nclass = vaginal"] ;
314 -> 318 ;
319 [label="gini = 0.0\nsamples = 2\nvalue = [0, 2]\nclass = c-section"] ;
318 -> 319 ;
320 [label="gini = 0.32\nsamples = 3\nvalue = [4, 1]\nclass = vaginal"] ;
318 -> 320 ;
321 [label="Prior_Births_Living <= 2.5\ngini = 0.022\nsamples = 51\nvalue = [1, 87]\nclass = c-section"] ;
311 -> 321 ;
322 [label="gini = 0.0\nsamples = 35\nvalue = [0, 52]\nclass = c-section"] ;
321 -> 322 ;
323 [label="Prior_Terminations <= 0.5\ngini = 0.054\nsamples = 16\nvalue = [1, 35]\nclass = c-section"] ;
321 -> 323 ;
324 [label="#_of_Previous_Cesareans <= 2.5\ngini = 0.105\nsamples = 8\nvalue = [1, 17]\nclass = c-section"] ;
323 -> 324 ;
325 [label="gini = 0.219\nsamples = 4\nvalue = [1, 7]\nclass = c-section"] ;
324 -> 325 ;
326 [label="gini = 0.0\nsamples = 4\nvalue = [0, 10]\nclass = c-section"] ;
324 -> 326 ;
327 [label="gini = 0.0\nsamples = 8\nvalue = [0, 18]\nclass = c-section"] ;
323 -> 327 ;
328 [label="BMI <= 24.05\ngini = 0.004\nsamples = 711\nvalue = [2, 1117]\nclass = c-section"] ;
298 -> 328 ;
329 [label="Mothers_Height_in_Inches <= 64.5\ngini = 0.012\nsamples = 205\nvalue = [2, 316]\nclass = c-section"] ;
328 -> 329 ;
330 [label="Weight_Gain <= 56.5\ngini = 0.024\nsamples = 105\nvalue = [2, 160]\nclass = c-section"] ;
329 -> 330 ;
331 [label="BMI <= 23.95\ngini = 0.013\nsamples = 101\nvalue = [1, 155]\nclass = c-section"] ;
330 -> 331 ;
332 [label="gini = 0.0\nsamples = 97\nvalue = [0, 150]\nclass = c-section"] ;
331 -> 332 ;
333 [label="Weight_Gain <= 37.0\ngini = 0.278\nsamples = 4\nvalue = [1, 5]\nclass = c-section"] ;
331 -> 333 ;
334 [label="gini = 0.5\nsamples = 2\nvalue = [1, 1]\nclass = vaginal"] ;
333 -> 334 ;
335 [label="gini = 0.0\nsamples = 2\nvalue = [0, 4]\nclass = c-section"] ;
333 -> 335 ;
336 [label="Prior_Terminations <= 1.0\ngini = 0.278\nsamples = 4\nvalue = [1, 5]\nclass = c-section"] ;
330 -> 336 ;
337 [label="gini = 0.0\nsamples = 1\nvalue = [1, 0]\nclass = vaginal"] ;
336 -> 337 ;
338 [label="gini = 0.0\nsamples = 3\nvalue = [0, 5]\nclass = c-section"] ;
336 -> 338 ;
339 [label="gini = 0.0\nsamples = 100\nvalue = [0, 156]\nclass = c-section"] ;
329 -> 339 ;
340 [label="gini = 0.0\nsamples = 506\nvalue = [0, 801]\nclass = c-section"] ;
328 -> 340 ;
341 [label="Weight_Gain <= 12.5\ngini = 0.006\nsamples = 225\nvalue = [1, 351]\nclass = c-section"] ;
269 -> 341 ;
342 [label="Prior_Terminations <= 0.5\ngini = 0.025\nsamples = 48\nvalue = [1, 78]\nclass = c-section"] ;
341 -> 342 ;
343 [label="gini = 0.0\nsamples = 26\nvalue = [0, 44]\nclass = c-section"] ;
342 -> 343 ;
344 [label="Pre_Pregnancy_Weight <= 151.5\ngini = 0.056\nsamples = 22\nvalue = [1, 34]\nclass = c-section"] ;
342 -> 344 ;
345 [label="Age_of_Mother <= 34.5\ngini = 0.278\nsamples = 3\nvalue = [1, 5]\nclass = c-section"] ;
344 -> 345 ;
346 [label="Mothers_Height_in_Inches <= 63.0\ngini = 0.444\nsamples = 2\nvalue = [1, 2]\nclass = c-section"] ;
345 -> 346 ;
347 [label="gini = 0.0\nsamples = 1\nvalue = [0, 2]\nclass = c-section"] ;
346 -> 347 ;
348 [label="gini = 0.0\nsamples = 1\nvalue = [1, 0]\nclass = vaginal"] ;
346 -> 348 ;
349 [label="gini = 0.0\nsamples = 1\nvalue = [0, 3]\nclass = c-section"] ;
345 -> 349 ;
350 [label="gini = 0.0\nsamples = 19\nvalue = [0, 29]\nclass = c-section"] ;
344 -> 350 ;
351 [label="gini = 0.0\nsamples = 177\nvalue = [0, 273]\nclass = c-section"] ;
341 -> 351 ;
352 [label="Age_of_Mother <= 37.5\ngini = 0.496\nsamples = 10\nvalue = [6, 5]\nclass = vaginal"] ;
18 -> 352 ;
353 [label="BMI <= 24.45\ngini = 0.444\nsamples = 8\nvalue = [6, 3]\nclass = vaginal"] ;
352 -> 353 ;
354 [label="gini = 0.0\nsamples = 3\nvalue = [4, 0]\nclass = vaginal"] ;
353 -> 354 ;
355 [label="Weight_Gain <= 33.5\ngini = 0.48\nsamples = 5\nvalue = [2, 3]\nclass = c-section"] ;
353 -> 355 ;
356 [label="gini = 0.0\nsamples = 2\nvalue = [0, 2]\nclass = c-section"] ;
355 -> 356 ;
357 [label="Cigarette_Consumption <= 10.0\ngini = 0.444\nsamples = 3\nvalue = [2, 1]\nclass = vaginal"] ;
355 -> 357 ;
358 [label="gini = 0.0\nsamples = 2\nvalue = [2, 0]\nclass = vaginal"] ;
357 -> 358 ;
359 [label="gini = 0.0\nsamples = 1\nvalue = [0, 1]\nclass = c-section"] ;
357 -> 359 ;
360 [label="gini = 0.0\nsamples = 2\nvalue = [0, 2]\nclass = c-section"] ;
352 -> 360 ;
361 [label="BMI <= 24.75\ngini = 0.021\nsamples = 365\nvalue = [6, 563]\nclass = c-section"] ;
17 -> 361 ;
362 [label="#_of_Previous_Cesareans <= 1.5\ngini = 0.043\nsamples = 111\nvalue = [4, 176]\nclass = c-section"] ;
361 -> 362 ;
363 [label="Prior_Births_Living <= 1.5\ngini = 0.067\nsamples = 69\nvalue = [4, 112]\nclass = c-section"] ;
362 -> 363 ;
364 [label="Medical_Attendant <= 1.5\ngini = 0.022\nsamples = 51\nvalue = [1, 87]\nclass = c-section"] ;
363 -> 364 ;
365 [label="Mothers_Height_in_Inches <= 67.5\ngini = 0.024\nsamples = 48\nvalue = [1, 83]\nclass = c-section"] ;
364 -> 365 ;
366 [label="gini = 0.0\nsamples = 42\nvalue = [0, 75]\nclass = c-section"] ;
365 -> 366 ;
367 [label="Weight_Gain <= 23.0\ngini = 0.198\nsamples = 6\nvalue = [1, 8]\nclass = c-section"] ;
365 -> 367 ;
368 [label="gini = 0.0\nsamples = 1\nvalue = [1, 0]\nclass = vaginal"] ;
367 -> 368 ;
369 [label="gini = 0.0\nsamples = 5\nvalue = [0, 8]\nclass = c-section"] ;
367 -> 369 ;
370 [label="gini = 0.0\nsamples = 3\nvalue = [0, 4]\nclass = c-section"] ;
364 -> 370 ;
371 [label="Marital_Status_  <= 0.5\ngini = 0.191\nsamples = 18\nvalue = [3, 25]\nclass = c-section"] ;
363 -> 371 ;
372 [label="Pre_Pregnancy_Weight <= 129.0\ngini = 0.219\nsamples = 15\nvalue = [3, 21]\nclass = c-section"] ;
371 -> 372 ;
373 [label="gini = 0.0\nsamples = 8\nvalue = [0, 12]\nclass = c-section"] ;
372 -> 373 ;
374 [label="Age_of_Mother <= 40.5\ngini = 0.375\nsamples = 7\nvalue = [3, 9]\nclass = c-section"] ;
372 -> 374 ;
375 [label="gini = 0.0\nsamples = 3\nvalue = [0, 6]\nclass = c-section"] ;
374 -> 375 ;
376 [label="BMI <= 23.7\ngini = 0.5\nsamples = 4\nvalue = [3, 3]\nclass = vaginal"] ;
374 -> 376 ;
377 [label="Pre_Pregnancy_Weight <= 135.5\ngini = 0.375\nsamples = 2\nvalue = [1, 3]\nclass = c-section"] ;
376 -> 377 ;
378 [label="gini = 0.0\nsamples = 1\nvalue = [1, 0]\nclass = vaginal"] ;
377 -> 378 ;
379 [label="gini = 0.0\nsamples = 1\nvalue = [0, 3]\nclass = c-section"] ;
377 -> 379 ;
380 [label="gini = 0.0\nsamples = 2\nvalue = [2, 0]\nclass = vaginal"] ;
376 -> 380 ;
381 [label="gini = 0.0\nsamples = 3\nvalue = [0, 4]\nclass = c-section"] ;
371 -> 381 ;
382 [label="gini = 0.0\nsamples = 42\nvalue = [0, 64]\nclass = c-section"] ;
362 -> 382 ;
383 [label="BMI <= 30.55\ngini = 0.01\nsamples = 254\nvalue = [2, 387]\nclass = c-section"] ;
361 -> 383 ;
384 [label="#_of_Previous_Cesareans <= 2.5\ngini = 0.021\nsamples = 128\nvalue = [2, 191]\nclass = c-section"] ;
383 -> 384 ;
385 [label="Pre_Pregnancy_Weight <= 138.5\ngini = 0.013\nsamples = 99\nvalue = [1, 148]\nclass = c-section"] ;
384 -> 385 ;
386 [label="Prior_Births_Living <= 2.5\ngini = 0.153\nsamples = 9\nvalue = [1, 11]\nclass = c-section"] ;
385 -> 386 ;
387 [label="gini = 0.0\nsamples = 5\nvalue = [0, 7]\nclass = c-section"] ;
386 -> 387 ;
388 [label="BMI <= 26.5\ngini = 0.32\nsamples = 4\nvalue = [1, 4]\nclass = c-section"] ;
386 -> 388 ;
389 [label="gini = 0.0\nsamples = 3\nvalue = [0, 4]\nclass = c-section"] ;
388 -> 389 ;
390 [label="gini = 0.0\nsamples = 1\nvalue = [1, 0]\nclass = vaginal"] ;
388 -> 390 ;
391 [label="gini = 0.0\nsamples = 90\nvalue = [0, 137]\nclass = c-section"] ;
385 -> 391 ;
392 [label="Prior_Births_Living <= 3.5\ngini = 0.044\nsamples = 29\nvalue = [1, 43]\nclass = c-section"] ;
384 -> 392 ;
393 [label="Mothers_Height_in_Inches <= 67.0\ngini = 0.069\nsamples = 17\nvalue = [1, 27]\nclass = c-section"] ;
392 -> 393 ;
394 [label="gini = 0.0\nsamples = 15\nvalue = [0, 26]\nclass = c-section"] ;
393 -> 394 ;
395 [label="Mothers_Height_in_Inches <= 68.5\ngini = 0.5\nsamples = 2\nvalue = [1, 1]\nclass = vaginal"] ;
393 -> 395 ;
396 [label="gini = 0.0\nsamples = 1\nvalue = [1, 0]\nclass = vaginal"] ;
395 -> 396 ;
397 [label="gini = 0.0\nsamples = 1\nvalue = [0, 1]\nclass = c-section"] ;
395 -> 397 ;
398 [label="gini = 0.0\nsamples = 12\nvalue = [0, 16]\nclass = c-section"] ;
392 -> 398 ;
399 [label="gini = 0.0\nsamples = 126\nvalue = [0, 196]\nclass = c-section"] ;
383 -> 399 ;
400 [label="BMI <= 29.55\ngini = 0.45\nsamples = 98\nvalue = [96, 50]\nclass = vaginal"] ;
16 -> 400 ;
401 [label="Medical_Attendant <= 4.5\ngini = 0.423\nsamples = 75\nvalue = [78, 34]\nclass = vaginal"] ;
400 -> 401 ;
402 [label="Prior_Terminations <= 0.5\ngini = 0.298\nsamples = 60\nvalue = [72, 16]\nclass = vaginal"] ;
401 -> 402 ;
403 [label="Age_of_Mother <= 29.5\ngini = 0.331\nsamples = 47\nvalue = [53, 14]\nclass = vaginal"] ;
402 -> 403 ;
404 [label="Prior_Births_Living <= 1.5\ngini = 0.464\nsamples = 21\nvalue = [19, 11]\nclass = vaginal"] ;
403 -> 404 ;
405 [label="Pre_Pregnancy_Weight <= 118.0\ngini = 0.49\nsamples = 15\nvalue = [12, 9]\nclass = vaginal"] ;
404 -> 405 ;
406 [label="gini = 0.0\nsamples = 2\nvalue = [4, 0]\nclass = vaginal"] ;
405 -> 406 ;
407 [label="BMI <= 24.25\ngini = 0.498\nsamples = 13\nvalue = [8, 9]\nclass = c-section"] ;
405 -> 407 ;
408 [label="gini = 0.0\nsamples = 3\nvalue = [0, 6]\nclass = c-section"] ;
407 -> 408 ;
409 [label="Weight_Gain <= 44.0\ngini = 0.397\nsamples = 10\nvalue = [8, 3]\nclass = vaginal"] ;
407 -> 409 ;
410 [label="Mothers_Height_in_Inches <= 63.5\ngini = 0.198\nsamples = 9\nvalue = [8, 1]\nclass = vaginal"] ;
409 -> 410 ;
411 [label="BMI <= 26.65\ngini = 0.5\nsamples = 2\nvalue = [1, 1]\nclass = vaginal"] ;
410 -> 411 ;
412 [label="gini = 0.0\nsamples = 1\nvalue = [1, 0]\nclass = vaginal"] ;
411 -> 412 ;
413 [label="gini = 0.0\nsamples = 1\nvalue = [0, 1]\nclass = c-section"] ;
411 -> 413 ;
414 [label="gini = 0.0\nsamples = 7\nvalue = [7, 0]\nclass = vaginal"] ;
410 -> 414 ;
415 [label="gini = 0.0\nsamples = 1\nvalue = [0, 2]\nclass = c-section"] ;
409 -> 415 ;
416 [label="Pre_Pregnancy_Weight <= 144.5\ngini = 0.346\nsamples = 6\nvalue = [7, 2]\nclass = vaginal"] ;
404 -> 416 ;
417 [label="gini = 0.0\nsamples = 3\nvalue = [6, 0]\nclass = vaginal"] ;
416 -> 417 ;
418 [label="BMI <= 27.5\ngini = 0.444\nsamples = 3\nvalue = [1, 2]\nclass = c-section"] ;
416 -> 418 ;
419 [label="gini = 0.0\nsamples = 2\nvalue = [0, 2]\nclass = c-section"] ;
418 -> 419 ;
420 [label="gini = 0.0\nsamples = 1\nvalue = [1, 0]\nclass = vaginal"] ;
418 -> 420 ;
421 [label="#_of_Previous_Cesareans <= 1.5\ngini = 0.149\nsamples = 26\nvalue = [34, 3]\nclass = vaginal"] ;
403 -> 421 ;
422 [label="Pre_Pregnancy_Weight <= 172.5\ngini = 0.105\nsamples = 25\nvalue = [34, 2]\nclass = vaginal"] ;
421 -> 422 ;
423 [label="Weight_Gain <= 37.5\ngini = 0.059\nsamples = 22\nvalue = [32, 1]\nclass = vaginal"] ;
422 -> 423 ;
424 [label="gini = 0.0\nsamples = 17\nvalue = [25, 0]\nclass = vaginal"] ;
423 -> 424 ;
425 [label="Weight_Gain <= 38.5\ngini = 0.219\nsamples = 5\nvalue = [7, 1]\nclass = vaginal"] ;
423 -> 425 ;
426 [label="gini = 0.0\nsamples = 1\nvalue = [0, 1]\nclass = c-section"] ;
425 -> 426 ;
427 [label="gini = 0.0\nsamples = 4\nvalue = [7, 0]\nclass = vaginal"] ;
425 -> 427 ;
428 [label="Prior_Births_Living <= 1.5\ngini = 0.444\nsamples = 3\nvalue = [2, 1]\nclass = vaginal"] ;
422 -> 428 ;
429 [label="gini = 0.0\nsamples = 1\nvalue = [0, 1]\nclass = c-section"] ;
428 -> 429 ;
430 [label="gini = 0.0\nsamples = 2\nvalue = [2, 0]\nclass = vaginal"] ;
428 -> 430 ;
431 [label="gini = 0.0\nsamples = 1\nvalue = [0, 1]\nclass = c-section"] ;
421 -> 431 ;
432 [label="Age_of_Mother <= 34.5\ngini = 0.172\nsamples = 13\nvalue = [19, 2]\nclass = vaginal"] ;
402 -> 432 ;
433 [label="gini = 0.0\nsamples = 3\nvalue = [9, 0]\nclass = vaginal"] ;
432 -> 433 ;
434 [label="#_of_Previous_Cesareans <= 1.5\ngini = 0.278\nsamples = 10\nvalue = [10, 2]\nclass = vaginal"] ;
432 -> 434 ;
435 [label="Prior_Births_Living <= 1.5\ngini = 0.165\nsamples = 9\nvalue = [10, 1]\nclass = vaginal"] ;
434 -> 435 ;
436 [label="Age_of_Mother <= 36.0\ngini = 0.5\nsamples = 2\nvalue = [1, 1]\nclass = vaginal"] ;
435 -> 436 ;
437 [label="gini = 0.0\nsamples = 1\nvalue = [0, 1]\nclass = c-section"] ;
436 -> 437 ;
438 [label="gini = 0.0\nsamples = 1\nvalue = [1, 0]\nclass = vaginal"] ;
436 -> 438 ;
439 [label="gini = 0.0\nsamples = 7\nvalue = [9, 0]\nclass = vaginal"] ;
435 -> 439 ;
440 [label="gini = 0.0\nsamples = 1\nvalue = [0, 1]\nclass = c-section"] ;
434 -> 440 ;
441 [label="Prior_Terminations <= 0.5\ngini = 0.375\nsamples = 15\nvalue = [6, 18]\nclass = c-section"] ;
401 -> 441 ;
442 [label="Age_of_Mother <= 37.5\ngini = 0.142\nsamples = 10\nvalue = [1, 12]\nclass = c-section"] ;
441 -> 442 ;
443 [label="gini = 0.0\nsamples = 9\nvalue = [0, 12]\nclass = c-section"] ;
442 -> 443 ;
444 [label="gini = 0.0\nsamples = 1\nvalue = [1, 0]\nclass = vaginal"] ;
442 -> 444 ;
445 [label="Mothers_Height_in_Inches <= 66.5\ngini = 0.496\nsamples = 5\nvalue = [5, 6]\nclass = c-section"] ;
441 -> 445 ;
446 [label="gini = 0.0\nsamples = 3\nvalue = [0, 6]\nclass = c-section"] ;
445 -> 446 ;
447 [label="gini = 0.0\nsamples = 2\nvalue = [5, 0]\nclass = vaginal"] ;
445 -> 447 ;
448 [label="Weight_Gain <= 2.5\ngini = 0.498\nsamples = 23\nvalue = [18, 16]\nclass = vaginal"] ;
400 -> 448 ;
449 [label="gini = 0.0\nsamples = 3\nvalue = [7, 0]\nclass = vaginal"] ;
448 -> 449 ;
450 [label="#_of_Previous_Cesareans <= 1.5\ngini = 0.483\nsamples = 20\nvalue = [11, 16]\nclass = c-section"] ;
448 -> 450 ;
451 [label="Pre_Pregnancy_Weight <= 169.0\ngini = 0.493\nsamples = 18\nvalue = [11, 14]\nclass = c-section"] ;
450 -> 451 ;
452 [label="gini = 0.0\nsamples = 3\nvalue = [0, 5]\nclass = c-section"] ;
451 -> 452 ;
453 [label="Prior_Births_Living <= 1.5\ngini = 0.495\nsamples = 15\nvalue = [11, 9]\nclass = vaginal"] ;
451 -> 453 ;
454 [label="gini = 0.0\nsamples = 5\nvalue = [0, 7]\nclass = c-section"] ;
453 -> 454 ;
455 [label="Mothers_Height_in_Inches <= 61.5\ngini = 0.26\nsamples = 10\nvalue = [11, 2]\nclass = vaginal"] ;
453 -> 455 ;
456 [label="Age_of_Mother <= 28.0\ngini = 0.444\nsamples = 3\nvalue = [1, 2]\nclass = c-section"] ;
455 -> 456 ;
457 [label="gini = 0.0\nsamples = 2\nvalue = [0, 2]\nclass = c-section"] ;
456 -> 457 ;
458 [label="gini = 0.0\nsamples = 1\nvalue = [1, 0]\nclass = vaginal"] ;
456 -> 458 ;
459 [label="gini = 0.0\nsamples = 7\nvalue = [10, 0]\nclass = vaginal"] ;
455 -> 459 ;
460 [label="gini = 0.0\nsamples = 2\nvalue = [0, 2]\nclass = c-section"] ;
450 -> 460 ;
461 [label="BMI <= 21.95\ngini = 0.45\nsamples = 264\nvalue = [150, 288]\nclass = c-section"] ;
1 -> 461 ;
462 [label="Prior_Terminations <= 3.0\ngini = 0.472\nsamples = 32\nvalue = [34, 21]\nclass = vaginal"] ;
461 -> 462 ;
463 [label="Cigarette_Consumption <= 5.0\ngini = 0.453\nsamples = 30\nvalue = [34, 18]\nclass = vaginal"] ;
462 -> 463 ;
464 [label="Prior_Births_Living <= 2.5\ngini = 0.499\nsamples = 24\nvalue = [20, 18]\nclass = vaginal"] ;
463 -> 464 ;
465 [label="BMI <= 19.0\ngini = 0.485\nsamples = 18\nvalue = [12, 17]\nclass = c-section"] ;
464 -> 465 ;
466 [label="gini = 0.0\nsamples = 5\nvalue = [0, 7]\nclass = c-section"] ;
465 -> 466 ;
467 [label="Medical_Attendant <= 2.5\ngini = 0.496\nsamples = 13\nvalue = [12, 10]\nclass = vaginal"] ;
465 -> 467 ;
468 [label="Pre_Pregnancy_Weight <= 124.0\ngini = 0.5\nsamples = 11\nvalue = [10, 10]\nclass = vaginal"] ;
467 -> 468 ;
469 [label="Mothers_Height_in_Inches <= 63.5\ngini = 0.355\nsamples = 6\nvalue = [10, 3]\nclass = vaginal"] ;
468 -> 469 ;
470 [label="BMI <= 20.8\ngini = 0.375\nsamples = 3\nvalue = [1, 3]\nclass = c-section"] ;
469 -> 470 ;
471 [label="gini = 0.0\nsamples = 2\nvalue = [0, 3]\nclass = c-section"] ;
470 -> 471 ;
472 [label="gini = 0.0\nsamples = 1\nvalue = [1, 0]\nclass = vaginal"] ;
470 -> 472 ;
473 [label="gini = 0.0\nsamples = 3\nvalue = [9, 0]\nclass = vaginal"] ;
469 -> 473 ;
474 [label="gini = 0.0\nsamples = 5\nvalue = [0, 7]\nclass = c-section"] ;
468 -> 474 ;
475 [label="gini = 0.0\nsamples = 2\nvalue = [2, 0]\nclass = vaginal"] ;
467 -> 475 ;
476 [label="Mothers_Height_in_Inches <= 67.5\ngini = 0.198\nsamples = 6\nvalue = [8, 1]\nclass = vaginal"] ;
464 -> 476 ;
477 [label="gini = 0.0\nsamples = 5\nvalue = [8, 0]\nclass = vaginal"] ;
476 -> 477 ;
478 [label="gini = 0.0\nsamples = 1\nvalue = [0, 1]\nclass = c-section"] ;
476 -> 478 ;
479 [label="gini = 0.0\nsamples = 6\nvalue = [14, 0]\nclass = vaginal"] ;
463 -> 479 ;
480 [label="gini = 0.0\nsamples = 2\nvalue = [0, 3]\nclass = c-section"] ;
462 -> 480 ;
481 [label="Mothers_Height_in_Inches <= 71.0\ngini = 0.422\nsamples = 232\nvalue = [116, 267]\nclass = c-section"] ;
461 -> 481 ;
482 [label="Prior_Terminations <= 2.5\ngini = 0.412\nsamples = 226\nvalue = [109, 266]\nclass = c-section"] ;
481 -> 482 ;
483 [label="Prior_Births_Dead <= 0.5\ngini = 0.402\nsamples = 213\nvalue = [98, 254]\nclass = c-section"] ;
482 -> 483 ;
484 [label="Medical_Attendant <= 2.5\ngini = 0.392\nsamples = 209\nvalue = [92, 252]\nclass = c-section"] ;
483 -> 484 ;
485 [label="Weight_Gain <= 5.5\ngini = 0.357\nsamples = 197\nvalue = [75, 247]\nclass = c-section"] ;
484 -> 485 ;
486 [label="Weight_Gain <= 3.5\ngini = 0.5\nsamples = 12\nvalue = [10, 10]\nclass = vaginal"] ;
485 -> 486 ;
487 [label="Medical_Attendant <= 1.5\ngini = 0.408\nsamples = 9\nvalue = [4, 10]\nclass = c-section"] ;
486 -> 487 ;
488 [label="Marital_Status_  <= 0.5\ngini = 0.355\nsamples = 8\nvalue = [3, 10]\nclass = c-section"] ;
487 -> 488 ;
489 [label="Mothers_Height_in_Inches <= 60.5\ngini = 0.444\nsamples = 6\nvalue = [3, 6]\nclass = c-section"] ;
488 -> 489 ;
490 [label="gini = 0.0\nsamples = 1\nvalue = [1, 0]\nclass = vaginal"] ;
489 -> 490 ;
491 [label="Prior_Terminations <= 0.5\ngini = 0.375\nsamples = 5\nvalue = [2, 6]\nclass = c-section"] ;
489 -> 491 ;
492 [label="#_of_Previous_Cesareans <= 1.5\ngini = 0.444\nsamples = 2\nvalue = [2, 1]\nclass = vaginal"] ;
491 -> 492 ;
493 [label="gini = 0.0\nsamples = 1\nvalue = [2, 0]\nclass = vaginal"] ;
492 -> 493 ;
494 [label="gini = 0.0\nsamples = 1\nvalue = [0, 1]\nclass = c-section"] ;
492 -> 494 ;
495 [label="gini = 0.0\nsamples = 3\nvalue = [0, 5]\nclass = c-section"] ;
491 -> 495 ;
496 [label="gini = 0.0\nsamples = 2\nvalue = [0, 4]\nclass = c-section"] ;
488 -> 496 ;
497 [label="gini = 0.0\nsamples = 1\nvalue = [1, 0]\nclass = vaginal"] ;
487 -> 497 ;
498 [label="gini = 0.0\nsamples = 3\nvalue = [6, 0]\nclass = vaginal"] ;
486 -> 498 ;
499 [label="#_of_Previous_Cesareans <= 1.5\ngini = 0.338\nsamples = 185\nvalue = [65, 237]\nclass = c-section"] ;
485 -> 499 ;
500 [label="Mothers_Height_in_Inches <= 60.5\ngini = 0.377\nsamples = 156\nvalue = [64, 190]\nclass = c-section"] ;
499 -> 500 ;
501 [label="BMI <= 23.3\ngini = 0.256\nsamples = 30\nvalue = [8, 45]\nclass = c-section"] ;
500 -> 501 ;
502 [label="gini = 0.0\nsamples = 1\nvalue = [2, 0]\nclass = vaginal"] ;
501 -> 502 ;
503 [label="Pre_Pregnancy_Weight <= 136.5\ngini = 0.208\nsamples = 29\nvalue = [6, 45]\nclass = c-section"] ;
501 -> 503 ;
504 [label="gini = 0.0\nsamples = 9\nvalue = [0, 19]\nclass = c-section"] ;
503 -> 504 ;
505 [label="BMI <= 33.9\ngini = 0.305\nsamples = 20\nvalue = [6, 26]\nclass = c-section"] ;
503 -> 505 ;
506 [label="BMI <= 32.2\ngini = 0.457\nsamples = 12\nvalue = [6, 11]\nclass = c-section"] ;
505 -> 506 ;
507 [label="Prior_Births_Living <= 3.5\ngini = 0.43\nsamples = 11\nvalue = [5, 11]\nclass = c-section"] ;
506 -> 507 ;
508 [label="Pre_Pregnancy_Weight <= 141.5\ngini = 0.26\nsamples = 9\nvalue = [2, 11]\nclass = c-section"] ;
507 -> 508 ;
509 [label="gini = 0.444\nsamples = 3\nvalue = [2, 1]\nclass = vaginal"] ;
508 -> 509 ;
510 [label="gini = 0.0\nsamples = 6\nvalue = [0, 10]\nclass = c-section"] ;
508 -> 510 ;
511 [label="gini = 0.0\nsamples = 2\nvalue = [3, 0]\nclass = vaginal"] ;
507 -> 511 ;
512 [label="gini = 0.0\nsamples = 1\nvalue = [1, 0]\nclass = vaginal"] ;
506 -> 512 ;
513 [label="gini = 0.0\nsamples = 8\nvalue = [0, 15]\nclass = c-section"] ;
505 -> 513 ;
514 [label="Weight_Gain <= 24.5\ngini = 0.402\nsamples = 126\nvalue = [56, 145]\nclass = c-section"] ;
500 -> 514 ;
515 [label="BMI <= 35.85\ngini = 0.475\nsamples = 45\nvalue = [24, 38]\nclass = c-section"] ;
514 -> 515 ;
516 [label="Age_of_Mother <= 26.5\ngini = 0.5\nsamples = 28\nvalue = [20, 19]\nclass = vaginal"] ;
515 -> 516 ;
517 [label="Mothers_Height_in_Inches <= 69.5\ngini = 0.142\nsamples = 7\nvalue = [12, 1]\nclass = vaginal"] ;
516 -> 517 ;
518 [label="gini = 0.0\nsamples = 6\nvalue = [12, 0]\nclass = vaginal"] ;
517 -> 518 ;
519 [label="gini = 0.0\nsamples = 1\nvalue = [0, 1]\nclass = c-section"] ;
517 -> 519 ;
520 [label="Prior_Births_Living <= 1.5\ngini = 0.426\nsamples = 21\nvalue = [8, 18]\nclass = c-section"] ;
516 -> 520 ;
521 [label="Prior_Terminations <= 1.5\ngini = 0.291\nsamples = 13\nvalue = [3, 14]\nclass = c-section"] ;
520 -> 521 ;
522 [label="Age_of_Mother <= 29.0\ngini = 0.231\nsamples = 11\nvalue = [2, 13]\nclass = c-section"] ;
521 -> 522 ;
523 [label="gini = 0.0\nsamples = 2\nvalue = [0, 4]\nclass = c-section"] ;
522 -> 523 ;
524 [label="gini = 0.298\nsamples = 9\nvalue = [2, 9]\nclass = c-section"] ;
522 -> 524 ;
525 [label="Pre_Pregnancy_Weight <= 182.5\ngini = 0.5\nsamples = 2\nvalue = [1, 1]\nclass = vaginal"] ;
521 -> 525 ;
526 [label="gini = 0.0\nsamples = 1\nvalue = [1, 0]\nclass = vaginal"] ;
525 -> 526 ;
527 [label="gini = 0.0\nsamples = 1\nvalue = [0, 1]\nclass = c-section"] ;
525 -> 527 ;
528 [label="Age_of_Mother <= 29.5\ngini = 0.494\nsamples = 8\nvalue = [5, 4]\nclass = vaginal"] ;
520 -> 528 ;
529 [label="gini = 0.0\nsamples = 1\nvalue = [2, 0]\nclass = vaginal"] ;
528 -> 529 ;
530 [label="Age_of_Mother <= 36.5\ngini = 0.49\nsamples = 7\nvalue = [3, 4]\nclass = c-section"] ;
528 -> 530 ;
531 [label="gini = 0.32\nsamples = 5\nvalue = [1, 4]\nclass = c-section"] ;
530 -> 531 ;
532 [label="gini = 0.0\nsamples = 2\nvalue = [2, 0]\nclass = vaginal"] ;
530 -> 532 ;
533 [label="Age_of_Mother <= 33.5\ngini = 0.287\nsamples = 17\nvalue = [4, 19]\nclass = c-section"] ;
515 -> 533 ;
534 [label="BMI <= 42.05\ngini = 0.133\nsamples = 10\nvalue = [1, 13]\nclass = c-section"] ;
533 -> 534 ;
535 [label="gini = 0.0\nsamples = 7\nvalue = [0, 10]\nclass = c-section"] ;
534 -> 535 ;
536 [label="BMI <= 42.45\ngini = 0.375\nsamples = 3\nvalue = [1, 3]\nclass = c-section"] ;
534 -> 536 ;
537 [label="gini = 0.0\nsamples = 1\nvalue = [1, 0]\nclass = vaginal"] ;
536 -> 537 ;
538 [label="gini = 0.0\nsamples = 2\nvalue = [0, 3]\nclass = c-section"] ;
536 -> 538 ;
539 [label="Marital_Status_  <= 0.5\ngini = 0.444\nsamples = 7\nvalue = [3, 6]\nclass = c-section"] ;
533 -> 539 ;
540 [label="Weight_Gain <= 12.5\ngini = 0.245\nsamples = 6\nvalue = [1, 6]\nclass = c-section"] ;
539 -> 540 ;
541 [label="gini = 0.0\nsamples = 4\nvalue = [0, 5]\nclass = c-section"] ;
540 -> 541 ;
542 [label="Age_of_Mother <= 37.5\ngini = 0.5\nsamples = 2\nvalue = [1, 1]\nclass = vaginal"] ;
540 -> 542 ;
543 [label="gini = 0.0\nsamples = 1\nvalue = [0, 1]\nclass = c-section"] ;
542 -> 543 ;
544 [label="gini = 0.0\nsamples = 1\nvalue = [1, 0]\nclass = vaginal"] ;
542 -> 544 ;
545 [label="gini = 0.0\nsamples = 1\nvalue = [2, 0]\nclass = vaginal"] ;
539 -> 545 ;
546 [label="Weight_Gain <= 39.5\ngini = 0.354\nsamples = 81\nvalue = [32, 107]\nclass = c-section"] ;
514 -> 546 ;
547 [label="Weight_Gain <= 31.5\ngini = 0.2\nsamples = 47\nvalue = [9, 71]\nclass = c-section"] ;
546 -> 547 ;
548 [label="Weight_Gain <= 26.5\ngini = 0.12\nsamples = 27\nvalue = [3, 44]\nclass = c-section"] ;
547 -> 548 ;
549 [label="Age_of_Mother <= 31.5\ngini = 0.278\nsamples = 7\nvalue = [2, 10]\nclass = c-section"] ;
548 -> 549 ;
550 [label="gini = 0.0\nsamples = 4\nvalue = [0, 6]\nclass = c-section"] ;
549 -> 550 ;
551 [label="Prior_Births_Living <= 1.5\ngini = 0.444\nsamples = 3\nvalue = [2, 4]\nclass = c-section"] ;
549 -> 551 ;
552 [label="gini = 0.0\nsamples = 1\nvalue = [0, 4]\nclass = c-section"] ;
551 -> 552 ;
553 [label="gini = 0.0\nsamples = 2\nvalue = [2, 0]\nclass = vaginal"] ;
551 -> 553 ;
554 [label="Cigarette_Consumption <= 59.5\ngini = 0.056\nsamples = 20\nvalue = [1, 34]\nclass = c-section"] ;
548 -> 554 ;
555 [label="gini = 0.0\nsamples = 19\nvalue = [0, 34]\nclass = c-section"] ;
554 -> 555 ;
556 [label="gini = 0.0\nsamples = 1\nvalue = [1, 0]\nclass = vaginal"] ;
554 -> 556 ;
557 [label="BMI <= 30.15\ngini = 0.298\nsamples = 20\nvalue = [6, 27]\nclass = c-section"] ;
547 -> 557 ;
558 [label="Prior_Births_Living <= 3.5\ngini = 0.142\nsamples = 14\nvalue = [2, 24]\nclass = c-section"] ;
557 -> 558 ;
559 [label="Marital_Status_  <= 0.5\ngini = 0.077\nsamples = 13\nvalue = [1, 24]\nclass = c-section"] ;
558 -> 559 ;
560 [label="gini = 0.08\nsamples = 12\nvalue = [1, 23]\nclass = c-section"] ;
559 -> 560 ;
561 [label="gini = 0.0\nsamples = 1\nvalue = [0, 1]\nclass = c-section"] ;
559 -> 561 ;
562 [label="gini = 0.0\nsamples = 1\nvalue = [1, 0]\nclass = vaginal"] ;
558 -> 562 ;
563 [label="Pre_Pregnancy_Weight <= 193.0\ngini = 0.49\nsamples = 6\nvalue = [4, 3]\nclass = vaginal"] ;
557 -> 563 ;
564 [label="gini = 0.0\nsamples = 2\nvalue = [2, 0]\nclass = vaginal"] ;
563 -> 564 ;
565 [label="Mothers_Height_in_Inches <= 64.5\ngini = 0.48\nsamples = 4\nvalue = [2, 3]\nclass = c-section"] ;
563 -> 565 ;
566 [label="gini = 0.0\nsamples = 3\nvalue = [0, 3]\nclass = c-section"] ;
565 -> 566 ;
567 [label="gini = 0.0\nsamples = 1\nvalue = [2, 0]\nclass = vaginal"] ;
565 -> 567 ;
568 [label="Mothers_Height_in_Inches <= 61.5\ngini = 0.476\nsamples = 34\nvalue = [23, 36]\nclass = c-section"] ;
546 -> 568 ;
569 [label="gini = 0.0\nsamples = 2\nvalue = [3, 0]\nclass = vaginal"] ;
568 -> 569 ;
570 [label="BMI <= 22.7\ngini = 0.459\nsamples = 32\nvalue = [20, 36]\nclass = c-section"] ;
568 -> 570 ;
571 [label="gini = 0.0\nsamples = 2\nvalue = [0, 5]\nclass = c-section"] ;
570 -> 571 ;
572 [label="Medical_Attendant <= 1.5\ngini = 0.477\nsamples = 30\nvalue = [20, 31]\nclass = c-section"] ;
570 -> 572 ;
573 [label="Age_of_Mother <= 24.0\ngini = 0.486\nsamples = 29\nvalue = [20, 28]\nclass = c-section"] ;
572 -> 573 ;
574 [label="gini = 0.0\nsamples = 3\nvalue = [0, 4]\nclass = c-section"] ;
573 -> 574 ;
575 [label="gini = 0.496\nsamples = 26\nvalue = [20, 24]\nclass = c-section"] ;
573 -> 575 ;
576 [label="gini = 0.0\nsamples = 1\nvalue = [0, 3]\nclass = c-section"] ;
572 -> 576 ;
577 [label="Weight_Gain <= 15.5\ngini = 0.041\nsamples = 29\nvalue = [1, 47]\nclass = c-section"] ;
499 -> 577 ;
578 [label="Weight_Gain <= 14.5\ngini = 0.198\nsamples = 8\nvalue = [1, 8]\nclass = c-section"] ;
577 -> 578 ;
579 [label="gini = 0.0\nsamples = 6\nvalue = [0, 7]\nclass = c-section"] ;
578 -> 579 ;
580 [label="Prior_Terminations <= 1.0\ngini = 0.5\nsamples = 2\nvalue = [1, 1]\nclass = vaginal"] ;
578 -> 580 ;
581 [label="gini = 0.0\nsamples = 1\nvalue = [1, 0]\nclass = vaginal"] ;
580 -> 581 ;
582 [label="gini = 0.0\nsamples = 1\nvalue = [0, 1]\nclass = c-section"] ;
580 -> 582 ;
583 [label="gini = 0.0\nsamples = 21\nvalue = [0, 39]\nclass = c-section"] ;
577 -> 583 ;
584 [label="BMI <= 32.8\ngini = 0.351\nsamples = 12\nvalue = [17, 5]\nclass = vaginal"] ;
484 -> 584 ;
585 [label="Age_of_Mother <= 32.0\ngini = 0.133\nsamples = 8\nvalue = [13, 1]\nclass = vaginal"] ;
584 -> 585 ;
586 [label="gini = 0.0\nsamples = 5\nvalue = [8, 0]\nclass = vaginal"] ;
585 -> 586 ;
587 [label="Age_of_Mother <= 35.5\ngini = 0.278\nsamples = 3\nvalue = [5, 1]\nclass = vaginal"] ;
585 -> 587 ;
588 [label="gini = 0.0\nsamples = 1\nvalue = [0, 1]\nclass = c-section"] ;
587 -> 588 ;
589 [label="gini = 0.0\nsamples = 2\nvalue = [5, 0]\nclass = vaginal"] ;
587 -> 589 ;
590 [label="Weight_Gain <= 21.0\ngini = 0.5\nsamples = 4\nvalue = [4, 4]\nclass = vaginal"] ;
584 -> 590 ;
591 [label="gini = 0.0\nsamples = 2\nvalue = [4, 0]\nclass = vaginal"] ;
590 -> 591 ;
592 [label="gini = 0.0\nsamples = 2\nvalue = [0, 4]\nclass = c-section"] ;
590 -> 592 ;
593 [label="BMI <= 35.9\ngini = 0.375\nsamples = 4\nvalue = [6, 2]\nclass = vaginal"] ;
483 -> 593 ;
594 [label="gini = 0.0\nsamples = 3\nvalue = [6, 0]\nclass = vaginal"] ;
593 -> 594 ;
595 [label="gini = 0.0\nsamples = 1\nvalue = [0, 2]\nclass = c-section"] ;
593 -> 595 ;
596 [label="Age_of_Mother <= 25.0\ngini = 0.499\nsamples = 13\nvalue = [11, 12]\nclass = c-section"] ;
482 -> 596 ;
597 [label="gini = 0.0\nsamples = 1\nvalue = [0, 3]\nclass = c-section"] ;
596 -> 597 ;
598 [label="Pre_Pregnancy_Weight <= 165.0\ngini = 0.495\nsamples = 12\nvalue = [11, 9]\nclass = vaginal"] ;
596 -> 598 ;
599 [label="Prior_Terminations <= 3.5\ngini = 0.245\nsamples = 4\nvalue = [6, 1]\nclass = vaginal"] ;
598 -> 599 ;
600 [label="gini = 0.0\nsamples = 3\nvalue = [6, 0]\nclass = vaginal"] ;
599 -> 600 ;
601 [label="gini = 0.0\nsamples = 1\nvalue = [0, 1]\nclass = c-section"] ;
599 -> 601 ;
602 [label="Mothers_Height_in_Inches <= 65.5\ngini = 0.473\nsamples = 8\nvalue = [5, 8]\nclass = c-section"] ;
598 -> 602 ;
603 [label="gini = 0.0\nsamples = 3\nvalue = [0, 4]\nclass = c-section"] ;
602 -> 603 ;
604 [label="NO_RISK <= 4.5\ngini = 0.494\nsamples = 5\nvalue = [5, 4]\nclass = vaginal"] ;
602 -> 604 ;
605 [label="BMI <= 31.45\ngini = 0.49\nsamples = 4\nvalue = [3, 4]\nclass = c-section"] ;
604 -> 605 ;
606 [label="gini = 0.0\nsamples = 2\nvalue = [0, 4]\nclass = c-section"] ;
605 -> 606 ;
607 [label="gini = 0.0\nsamples = 2\nvalue = [3, 0]\nclass = vaginal"] ;
605 -> 607 ;
608 [label="gini = 0.0\nsamples = 1\nvalue = [2, 0]\nclass = vaginal"] ;
604 -> 608 ;
609 [label="BMI <= 28.8\ngini = 0.219\nsamples = 6\nvalue = [7, 1]\nclass = vaginal"] ;
481 -> 609 ;
610 [label="gini = 0.0\nsamples = 1\nvalue = [0, 1]\nclass = c-section"] ;
609 -> 610 ;
611 [label="gini = 0.0\nsamples = 5\nvalue = [7, 0]\nclass = vaginal"] ;
609 -> 611 ;
612 [label="Prior_Births_Living <= 0.5\ngini = 0.466\nsamples = 21894\nvalue = [21837, 12823]\nclass = vaginal"] ;
0 -> 612 [labeldistance=2.5, labelangle=-45, headlabel="False"] ;
613 [label="Pre_Pregnancy_Weight <= 146.5\ngini = 0.5\nsamples = 10622\nvalue = [8633, 8180]\nclass = vaginal"] ;
612 -> 613 ;
614 [label="NO_RISK <= 0.5\ngini = 0.487\nsamples = 5202\nvalue = [4790, 3459]\nclass = vaginal"] ;
613 -> 614 ;
615 [label="Age_of_Mother <= 34.5\ngini = 0.496\nsamples = 733\nvalue = [522, 631]\nclass = c-section"] ;
614 -> 615 ;
616 [label="Medical_Attendant <= 2.5\ngini = 0.5\nsamples = 576\nvalue = [463, 442]\nclass = vaginal"] ;
615 -> 616 ;
617 [label="Mothers_Height_in_Inches <= 61.5\ngini = 0.499\nsamples = 540\nvalue = [410, 439]\nclass = c-section"] ;
616 -> 617 ;
618 [label="Mothers_Height_in_Inches <= 55.0\ngini = 0.466\nsamples = 132\nvalue = [80, 137]\nclass = c-section"] ;
617 -> 618 ;
619 [label="gini = 0.0\nsamples = 2\nvalue = [0, 5]\nclass = c-section"] ;
618 -> 619 ;
620 [label="Pre_Pregnancy_Weight <= 129.0\ngini = 0.47\nsamples = 130\nvalue = [80, 132]\nclass = c-section"] ;
618 -> 620 ;
621 [label="Weight_Gain <= 37.5\ngini = 0.498\nsamples = 75\nvalue = [56, 64]\nclass = c-section"] ;
620 -> 621 ;
622 [label="Cigarette_Consumption <= 10.0\ngini = 0.496\nsamples = 51\nvalue = [43, 36]\nclass = vaginal"] ;
621 -> 622 ;
623 [label="Pre_Pregnancy_Weight <= 91.0\ngini = 0.491\nsamples = 49\nvalue = [43, 33]\nclass = vaginal"] ;
622 -> 623 ;
624 [label="gini = 0.0\nsamples = 1\nvalue = [0, 2]\nclass = c-section"] ;
623 -> 624 ;
625 [label="Weight_Gain <= 21.5\ngini = 0.487\nsamples = 48\nvalue = [43, 31]\nclass = vaginal"] ;
623 -> 625 ;
626 [label="Marital_Status_  <= 0.5\ngini = 0.375\nsamples = 12\nvalue = [4, 12]\nclass = c-section"] ;
625 -> 626 ;
627 [label="BMI <= 22.8\ngini = 0.42\nsamples = 8\nvalue = [3, 7]\nclass = c-section"] ;
626 -> 627 ;
628 [label="Prior_Terminations <= 1.0\ngini = 0.48\nsamples = 4\nvalue = [3, 2]\nclass = vaginal"] ;
627 -> 628 ;
629 [label="gini = 0.375\nsamples = 3\nvalue = [3, 1]\nclass = vaginal"] ;
628 -> 629 ;
630 [label="gini = 0.0\nsamples = 1\nvalue = [0, 1]\nclass = c-section"] ;
628 -> 630 ;
631 [label="gini = 0.0\nsamples = 4\nvalue = [0, 5]\nclass = c-section"] ;
627 -> 631 ;
632 [label="Mothers_Height_in_Inches <= 57.5\ngini = 0.278\nsamples = 4\nvalue = [1, 5]\nclass = c-section"] ;
626 -> 632 ;
633 [label="gini = 0.0\nsamples = 1\nvalue = [1, 0]\nclass = vaginal"] ;
632 -> 633 ;
634 [label="gini = 0.0\nsamples = 3\nvalue = [0, 5]\nclass = c-section"] ;
632 -> 634 ;
635 [label="Pre_Pregnancy_Weight <= 104.0\ngini = 0.441\nsamples = 36\nvalue = [39, 19]\nclass = vaginal"] ;
625 -> 635 ;
636 [label="gini = 0.0\nsamples = 4\nvalue = [7, 0]\nclass = vaginal"] ;
635 -> 636 ;
637 [label="Induction_of_labor_N <= 0.5\ngini = 0.468\nsamples = 32\nvalue = [32, 19]\nclass = vaginal"] ;
635 -> 637 ;
638 [label="Age_of_Mother <= 19.5\ngini = 0.465\nsamples = 13\nvalue = [12, 7]\nclass = vaginal"] ;
637 -> 638 ;
639 [label="gini = 0.0\nsamples = 1\nvalue = [0, 3]\nclass = c-section"] ;
638 -> 639 ;
640 [label="gini = 0.375\nsamples = 12\nvalue = [12, 4]\nclass = vaginal"] ;
638 -> 640 ;
641 [label="Pre_Pregnancy_Weight <= 118.0\ngini = 0.469\nsamples = 19\nvalue = [20, 12]\nclass = vaginal"] ;
637 -> 641 ;
642 [label="gini = 0.499\nsamples = 14\nvalue = [11, 12]\nclass = c-section"] ;
641 -> 642 ;
643 [label="gini = 0.0\nsamples = 5\nvalue = [9, 0]\nclass = vaginal"] ;
641 -> 643 ;
644 [label="gini = 0.0\nsamples = 2\nvalue = [0, 3]\nclass = c-section"] ;
622 -> 644 ;
645 [label="BMI <= 25.95\ngini = 0.433\nsamples = 24\nvalue = [13, 28]\nclass = c-section"] ;
621 -> 645 ;
646 [label="Prior_Terminations <= 0.5\ngini = 0.388\nsamples = 23\nvalue = [10, 28]\nclass = c-section"] ;
645 -> 646 ;
647 [label="Pre_Pregnancy_Weight <= 108.5\ngini = 0.264\nsamples = 19\nvalue = [5, 27]\nclass = c-section"] ;
646 -> 647 ;
648 [label="BMI <= 19.95\ngini = 0.444\nsamples = 5\nvalue = [2, 4]\nclass = c-section"] ;
647 -> 648 ;
649 [label="Induction_of_labor_N <= 0.5\ngini = 0.32\nsamples = 4\nvalue = [1, 4]\nclass = c-section"] ;
648 -> 649 ;
650 [label="gini = 0.0\nsamples = 2\nvalue = [0, 3]\nclass = c-section"] ;
649 -> 650 ;
651 [label="Weight_Gain <= 41.0\ngini = 0.5\nsamples = 2\nvalue = [1, 1]\nclass = vaginal"] ;
649 -> 651 ;
652 [label="gini = 0.0\nsamples = 1\nvalue = [0, 1]\nclass = c-section"] ;
651 -> 652 ;
653 [label="gini = 0.0\nsamples = 1\nvalue = [1, 0]\nclass = vaginal"] ;
651 -> 653 ;
654 [label="gini = 0.0\nsamples = 1\nvalue = [1, 0]\nclass = vaginal"] ;
648 -> 654 ;
655 [label="Weight_Gain <= 39.5\ngini = 0.204\nsamples = 14\nvalue = [3, 23]\nclass = c-section"] ;
647 -> 655 ;
656 [label="Age_of_Mother <= 25.5\ngini = 0.48\nsamples = 3\nvalue = [2, 3]\nclass = c-section"] ;
655 -> 656 ;
657 [label="BMI <= 22.55\ngini = 0.444\nsamples = 2\nvalue = [2, 1]\nclass = vaginal"] ;
656 -> 657 ;
658 [label="gini = 0.0\nsamples = 1\nvalue = [0, 1]\nclass = c-section"] ;
657 -> 658 ;
659 [label="gini = 0.0\nsamples = 1\nvalue = [2, 0]\nclass = vaginal"] ;
657 -> 659 ;
660 [label="gini = 0.0\nsamples = 1\nvalue = [0, 2]\nclass = c-section"] ;
656 -> 660 ;
661 [label="BMI <= 22.75\ngini = 0.091\nsamples = 11\nvalue = [1, 20]\nclass = c-section"] ;
655 -> 661 ;
662 [label="Induction_of_labor_N <= 0.5\ngini = 0.278\nsamples = 4\nvalue = [1, 5]\nclass = c-section"] ;
661 -> 662 ;
663 [label="gini = 0.0\nsamples = 1\nvalue = [1, 0]\nclass = vaginal"] ;
662 -> 663 ;
664 [label="gini = 0.0\nsamples = 3\nvalue = [0, 5]\nclass = c-section"] ;
662 -> 664 ;
665 [label="gini = 0.0\nsamples = 7\nvalue = [0, 15]\nclass = c-section"] ;
661 -> 665 ;
666 [label="BMI <= 24.7\ngini = 0.278\nsamples = 4\nvalue = [5, 1]\nclass = vaginal"] ;
646 -> 666 ;
667 [label="gini = 0.0\nsamples = 3\nvalue = [5, 0]\nclass = vaginal"] ;
666 -> 667 ;
668 [label="gini = 0.0\nsamples = 1\nvalue = [0, 1]\nclass = c-section"] ;
666 -> 668 ;
669 [label="gini = 0.0\nsamples = 1\nvalue = [3, 0]\nclass = vaginal"] ;
645 -> 669 ;
670 [label="Pre_Pregnancy_Weight <= 136.5\ngini = 0.386\nsamples = 55\nvalue = [24, 68]\nclass = c-section"] ;
620 -> 670 ;
671 [label="Mothers_Height_in_Inches <= 59.5\ngini = 0.3\nsamples = 30\nvalue = [9, 40]\nclass = c-section"] ;
670 -> 671 ;
672 [label="gini = 0.0\nsamples = 5\nvalue = [0, 11]\nclass = c-section"] ;
671 -> 672 ;
673 [label="Weight_Gain <= 35.0\ngini = 0.361\nsamples = 25\nvalue = [9, 29]\nclass = c-section"] ;
671 -> 673 ;
674 [label="Weight_Gain <= 18.5\ngini = 0.469\nsamples = 16\nvalue = [9, 15]\nclass = c-section"] ;
673 -> 674 ;
675 [label="gini = 0.0\nsamples = 3\nvalue = [0, 8]\nclass = c-section"] ;
674 -> 675 ;
676 [label="Pre_Pregnancy_Weight <= 131.0\ngini = 0.492\nsamples = 13\nvalue = [9, 7]\nclass = vaginal"] ;
674 -> 676 ;
677 [label="Medical_Attendant <= 1.5\ngini = 0.469\nsamples = 7\nvalue = [3, 5]\nclass = c-section"] ;
676 -> 677 ;
678 [label="Age_of_Mother <= 31.5\ngini = 0.408\nsamples = 6\nvalue = [2, 5]\nclass = c-section"] ;
677 -> 678 ;
679 [label="gini = 0.48\nsamples = 5\nvalue = [2, 3]\nclass = c-section"] ;
678 -> 679 ;
680 [label="gini = 0.0\nsamples = 1\nvalue = [0, 2]\nclass = c-section"] ;
678 -> 680 ;
681 [label="gini = 0.0\nsamples = 1\nvalue = [1, 0]\nclass = vaginal"] ;
677 -> 681 ;
682 [label="Age_of_Mother <= 30.0\ngini = 0.375\nsamples = 6\nvalue = [6, 2]\nclass = vaginal"] ;
676 -> 682 ;
683 [label="Mothers_Height_in_Inches <= 60.5\ngini = 0.48\nsamples = 4\nvalue = [3, 2]\nclass = vaginal"] ;
682 -> 683 ;
684 [label="gini = 0.5\nsamples = 2\nvalue = [1, 1]\nclass = vaginal"] ;
683 -> 684 ;
685 [label="gini = 0.444\nsamples = 2\nvalue = [2, 1]\nclass = vaginal"] ;
683 -> 685 ;
686 [label="gini = 0.0\nsamples = 2\nvalue = [3, 0]\nclass = vaginal"] ;
682 -> 686 ;
687 [label="gini = 0.0\nsamples = 9\nvalue = [0, 14]\nclass = c-section"] ;
673 -> 687 ;
688 [label="Induction_of_labor_Y <= 0.5\ngini = 0.454\nsamples = 25\nvalue = [15, 28]\nclass = c-section"] ;
670 -> 688 ;
689 [label="Age_of_Mother <= 25.5\ngini = 0.417\nsamples = 14\nvalue = [8, 19]\nclass = c-section"] ;
688 -> 689 ;
690 [label="Pre_Pregnancy_Weight <= 141.0\ngini = 0.48\nsamples = 6\nvalue = [6, 4]\nclass = vaginal"] ;
689 -> 690 ;
691 [label="BMI <= 27.35\ngini = 0.32\nsamples = 2\nvalue = [4, 1]\nclass = vaginal"] ;
690 -> 691 ;
692 [label="gini = 0.0\nsamples = 1\nvalue = [0, 1]\nclass = c-section"] ;
691 -> 692 ;
693 [label="gini = 0.0\nsamples = 1\nvalue = [4, 0]\nclass = vaginal"] ;
691 -> 693 ;
694 [label="Prior_Terminations <= 0.5\ngini = 0.48\nsamples = 4\nvalue = [2, 3]\nclass = c-section"] ;
690 -> 694 ;
695 [label="Weight_Gain <= 36.5\ngini = 0.375\nsamples = 3\nvalue = [1, 3]\nclass = c-section"] ;
694 -> 695 ;
696 [label="gini = 0.0\nsamples = 2\nvalue = [0, 3]\nclass = c-section"] ;
695 -> 696 ;
697 [label="gini = 0.0\nsamples = 1\nvalue = [1, 0]\nclass = vaginal"] ;
695 -> 697 ;
698 [label="gini = 0.0\nsamples = 1\nvalue = [1, 0]\nclass = vaginal"] ;
694 -> 698 ;
699 [label="BMI <= 27.8\ngini = 0.208\nsamples = 8\nvalue = [2, 15]\nclass = c-section"] ;
689 -> 699 ;
700 [label="Mothers_Height_in_Inches <= 59.5\ngini = 0.48\nsamples = 4\nvalue = [2, 3]\nclass = c-section"] ;
699 -> 700 ;
701 [label="gini = 0.0\nsamples = 1\nvalue = [2, 0]\nclass = vaginal"] ;
700 -> 701 ;
702 [label="gini = 0.0\nsamples = 3\nvalue = [0, 3]\nclass = c-section"] ;
700 -> 702 ;
703 [label="gini = 0.0\nsamples = 4\nvalue = [0, 12]\nclass = c-section"] ;
699 -> 703 ;
704 [label="Age_of_Mother <= 31.5\ngini = 0.492\nsamples = 11\nvalue = [7, 9]\nclass = c-section"] ;
688 -> 704 ;
705 [label="BMI <= 26.65\ngini = 0.42\nsamples = 8\nvalue = [7, 3]\nclass = vaginal"] ;
704 -> 705 ;
706 [label="Pre_Pregnancy_Weight <= 139.0\ngini = 0.444\nsamples = 3\nvalue = [1, 2]\nclass = c-section"] ;
705 -> 706 ;
707 [label="gini = 0.0\nsamples = 1\nvalue = [0, 1]\nclass = c-section"] ;
706 -> 707 ;
708 [label="Weight_Gain <= 37.5\ngini = 0.5\nsamples = 2\nvalue = [1, 1]\nclass = vaginal"] ;
706 -> 708 ;
709 [label="gini = 0.0\nsamples = 1\nvalue = [0, 1]\nclass = c-section"] ;
708 -> 709 ;
710 [label="gini = 0.0\nsamples = 1\nvalue = [1, 0]\nclass = vaginal"] ;
708 -> 710 ;
711 [label="Weight_Gain <= 22.5\ngini = 0.245\nsamples = 5\nvalue = [6, 1]\nclass = vaginal"] ;
705 -> 711 ;
712 [label="gini = 0.0\nsamples = 2\nvalue = [4, 0]\nclass = vaginal"] ;
711 -> 712 ;
713 [label="Marital_Status_  <= 0.5\ngini = 0.444\nsamples = 3\nvalue = [2, 1]\nclass = vaginal"] ;
711 -> 713 ;
714 [label="BMI <= 28.3\ngini = 0.5\nsamples = 2\nvalue = [1, 1]\nclass = vaginal"] ;
713 -> 714 ;
715 [label="gini = 0.0\nsamples = 1\nvalue = [0, 1]\nclass = c-section"] ;
714 -> 715 ;
716 [label="gini = 0.0\nsamples = 1\nvalue = [1, 0]\nclass = vaginal"] ;
714 -> 716 ;
717 [label="gini = 0.0\nsamples = 1\nvalue = [1, 0]\nclass = vaginal"] ;
713 -> 717 ;
718 [label="gini = 0.0\nsamples = 3\nvalue = [0, 6]\nclass = c-section"] ;
704 -> 718 ;
719 [label="Cigarette_Consumption <= 30.0\ngini = 0.499\nsamples = 408\nvalue = [330, 302]\nclass = vaginal"] ;
617 -> 719 ;
720 [label="Induction_of_labor_N <= 0.5\ngini = 0.499\nsamples = 404\nvalue = [325, 302]\nclass = vaginal"] ;
719 -> 720 ;
721 [label="Weight_Gain <= 62.5\ngini = 0.463\nsamples = 193\nvalue = [196, 112]\nclass = vaginal"] ;
720 -> 721 ;
722 [label="Cigarette_Consumption <= 2.0\ngini = 0.438\nsamples = 174\nvalue = [188, 90]\nclass = vaginal"] ;
721 -> 722 ;
723 [label="Pre_Pregnancy_Weight <= 108.0\ngini = 0.418\nsamples = 157\nvalue = [175, 74]\nclass = vaginal"] ;
722 -> 723 ;
724 [label="Age_of_Mother <= 23.0\ngini = 0.463\nsamples = 5\nvalue = [4, 7]\nclass = c-section"] ;
723 -> 724 ;
725 [label="gini = 0.0\nsamples = 2\nvalue = [0, 5]\nclass = c-section"] ;
724 -> 725 ;
726 [label="BMI <= 17.0\ngini = 0.444\nsamples = 3\nvalue = [4, 2]\nclass = vaginal"] ;
724 -> 726 ;
727 [label="gini = 0.0\nsamples = 1\nvalue = [2, 0]\nclass = vaginal"] ;
726 -> 727 ;
728 [label="Weight_Gain <= 30.0\ngini = 0.5\nsamples = 2\nvalue = [2, 2]\nclass = vaginal"] ;
726 -> 728 ;
729 [label="gini = 0.0\nsamples = 1\nvalue = [2, 0]\nclass = vaginal"] ;
728 -> 729 ;
730 [label="gini = 0.0\nsamples = 1\nvalue = [0, 2]\nclass = c-section"] ;
728 -> 730 ;
731 [label="Medical_Attendant <= 1.5\ngini = 0.405\nsamples = 152\nvalue = [171, 67]\nclass = vaginal"] ;
723 -> 731 ;
732 [label="Age_of_Mother <= 29.5\ngini = 0.396\nsamples = 146\nvalue = [166, 62]\nclass = vaginal"] ;
731 -> 732 ;
733 [label="Pre_Pregnancy_Weight <= 119.0\ngini = 0.348\nsamples = 95\nvalue = [114, 33]\nclass = vaginal"] ;
732 -> 733 ;
734 [label="gini = 0.0\nsamples = 18\nvalue = [30, 0]\nclass = vaginal"] ;
733 -> 734 ;
735 [label="Cigarette_Consumption <= 0.5\ngini = 0.405\nsamples = 77\nvalue = [84, 33]\nclass = vaginal"] ;
733 -> 735 ;
736 [label="gini = 0.411\nsamples = 76\nvalue = [81, 33]\nclass = vaginal"] ;
735 -> 736 ;
737 [label="gini = 0.0\nsamples = 1\nvalue = [3, 0]\nclass = vaginal"] ;
735 -> 737 ;
738 [label="Pre_Pregnancy_Weight <= 123.0\ngini = 0.46\nsamples = 51\nvalue = [52, 29]\nclass = vaginal"] ;
732 -> 738 ;
739 [label="Marital_Status_  <= 0.5\ngini = 0.497\nsamples = 17\nvalue = [11, 13]\nclass = c-section"] ;
738 -> 739 ;
740 [label="gini = 0.483\nsamples = 15\nvalue = [9, 13]\nclass = c-section"] ;
739 -> 740 ;
741 [label="gini = 0.0\nsamples = 2\nvalue = [2, 0]\nclass = vaginal"] ;
739 -> 741 ;
742 [label="Age_of_Mother <= 31.5\ngini = 0.404\nsamples = 34\nvalue = [41, 16]\nclass = vaginal"] ;
738 -> 742 ;
743 [label="gini = 0.208\nsamples = 12\nvalue = [15, 2]\nclass = vaginal"] ;
742 -> 743 ;
744 [label="gini = 0.455\nsamples = 22\nvalue = [26, 14]\nclass = vaginal"] ;
742 -> 744 ;
745 [label="Weight_Gain <= 38.0\ngini = 0.5\nsamples = 6\nvalue = [5, 5]\nclass = vaginal"] ;
731 -> 745 ;
746 [label="gini = 0.0\nsamples = 2\nvalue = [2, 0]\nclass = vaginal"] ;
745 -> 746 ;
747 [label="Weight_Gain <= 55.5\ngini = 0.469\nsamples = 4\nvalue = [3, 5]\nclass = c-section"] ;
745 -> 747 ;
748 [label="BMI <= 21.15\ngini = 0.278\nsamples = 3\nvalue = [1, 5]\nclass = c-section"] ;
747 -> 748 ;
749 [label="gini = 0.0\nsamples = 1\nvalue = [0, 4]\nclass = c-section"] ;
748 -> 749 ;
750 [label="gini = 0.5\nsamples = 2\nvalue = [1, 1]\nclass = vaginal"] ;
748 -> 750 ;
751 [label="gini = 0.0\nsamples = 1\nvalue = [2, 0]\nclass = vaginal"] ;
747 -> 751 ;
752 [label="BMI <= 20.45\ngini = 0.495\nsamples = 17\nvalue = [13, 16]\nclass = c-section"] ;
722 -> 752 ;
753 [label="Prior_Terminations <= 0.5\ngini = 0.32\nsamples = 3\nvalue = [4, 1]\nclass = vaginal"] ;
752 -> 753 ;
754 [label="gini = 0.0\nsamples = 1\nvalue = [2, 0]\nclass = vaginal"] ;
753 -> 754 ;
755 [label="BMI <= 19.05\ngini = 0.444\nsamples = 2\nvalue = [2, 1]\nclass = vaginal"] ;
753 -> 755 ;
756 [label="gini = 0.0\nsamples = 1\nvalue = [2, 0]\nclass = vaginal"] ;
755 -> 756 ;
757 [label="gini = 0.0\nsamples = 1\nvalue = [0, 1]\nclass = c-section"] ;
755 -> 757 ;
758 [label="BMI <= 21.85\ngini = 0.469\nsamples = 14\nvalue = [9, 15]\nclass = c-section"] ;
752 -> 758 ;
759 [label="gini = 0.0\nsamples = 4\nvalue = [0, 8]\nclass = c-section"] ;
758 -> 759 ;
760 [label="Age_of_Mother <= 29.5\ngini = 0.492\nsamples = 10\nvalue = [9, 7]\nclass = vaginal"] ;
758 -> 760 ;
761 [label="Mothers_Height_in_Inches <= 64.5\ngini = 0.463\nsamples = 8\nvalue = [4, 7]\nclass = c-section"] ;
760 -> 761 ;
762 [label="BMI <= 24.15\ngini = 0.346\nsamples = 7\nvalue = [2, 7]\nclass = c-section"] ;
761 -> 762 ;
763 [label="gini = 0.5\nsamples = 3\nvalue = [2, 2]\nclass = vaginal"] ;
762 -> 763 ;
764 [label="gini = 0.0\nsamples = 4\nvalue = [0, 5]\nclass = c-section"] ;
762 -> 764 ;
765 [label="gini = 0.0\nsamples = 1\nvalue = [2, 0]\nclass = vaginal"] ;
761 -> 765 ;
766 [label="gini = 0.0\nsamples = 2\nvalue = [5, 0]\nclass = vaginal"] ;
760 -> 766 ;
767 [label="Mothers_Height_in_Inches <= 64.5\ngini = 0.391\nsamples = 19\nvalue = [8, 22]\nclass = c-section"] ;
721 -> 767 ;
768 [label="Mothers_Height_in_Inches <= 62.5\ngini = 0.18\nsamples = 12\nvalue = [2, 18]\nclass = c-section"] ;
767 -> 768 ;
769 [label="gini = 0.0\nsamples = 3\nvalue = [0, 5]\nclass = c-section"] ;
768 -> 769 ;
770 [label="Cigarette_Consumption <= 2.0\ngini = 0.231\nsamples = 9\nvalue = [2, 13]\nclass = c-section"] ;
768 -> 770 ;
771 [label="BMI <= 22.05\ngini = 0.245\nsamples = 8\nvalue = [2, 12]\nclass = c-section"] ;
770 -> 771 ;
772 [label="gini = 0.0\nsamples = 3\nvalue = [0, 7]\nclass = c-section"] ;
771 -> 772 ;
773 [label="Age_of_Mother <= 24.0\ngini = 0.408\nsamples = 5\nvalue = [2, 5]\nclass = c-section"] ;
771 -> 773 ;
774 [label="gini = 0.0\nsamples = 3\nvalue = [0, 5]\nclass = c-section"] ;
773 -> 774 ;
775 [label="gini = 0.0\nsamples = 2\nvalue = [2, 0]\nclass = vaginal"] ;
773 -> 775 ;
776 [label="gini = 0.0\nsamples = 1\nvalue = [0, 1]\nclass = c-section"] ;
770 -> 776 ;
777 [label="Pre_Pregnancy_Weight <= 137.5\ngini = 0.48\nsamples = 7\nvalue = [6, 4]\nclass = vaginal"] ;
767 -> 777 ;
778 [label="gini = 0.0\nsamples = 4\nvalue = [0, 4]\nclass = c-section"] ;
777 -> 778 ;
779 [label="gini = 0.0\nsamples = 3\nvalue = [6, 0]\nclass = vaginal"] ;
777 -> 779 ;
780 [label="BMI <= 16.4\ngini = 0.482\nsamples = 211\nvalue = [129, 190]\nclass = c-section"] ;
720 -> 780 ;
781 [label="gini = 0.0\nsamples = 3\nvalue = [0, 6]\nclass = c-section"] ;
780 -> 781 ;
782 [label="Mothers_Height_in_Inches <= 66.5\ngini = 0.485\nsamples = 208\nvalue = [129, 184]\nclass = c-section"] ;
780 -> 782 ;
783 [label="Age_of_Mother <= 17.5\ngini = 0.476\nsamples = 181\nvalue = [107, 167]\nclass = c-section"] ;
782 -> 783 ;
784 [label="Age_of_Mother <= 16.5\ngini = 0.375\nsamples = 3\nvalue = [3, 1]\nclass = vaginal"] ;
783 -> 784 ;
785 [label="BMI <= 21.35\ngini = 0.444\nsamples = 2\nvalue = [2, 1]\nclass = vaginal"] ;
784 -> 785 ;
786 [label="gini = 0.0\nsamples = 1\nvalue = [2, 0]\nclass = vaginal"] ;
785 -> 786 ;
787 [label="gini = 0.0\nsamples = 1\nvalue = [0, 1]\nclass = c-section"] ;
785 -> 787 ;
788 [label="gini = 0.0\nsamples = 1\nvalue = [1, 0]\nclass = vaginal"] ;
784 -> 788 ;
789 [label="Mothers_Height_in_Inches <= 63.5\ngini = 0.474\nsamples = 178\nvalue = [104, 166]\nclass = c-section"] ;
783 -> 789 ;
790 [label="Prior_Terminations <= 0.5\ngini = 0.495\nsamples = 74\nvalue = [52, 64]\nclass = c-section"] ;
789 -> 790 ;
791 [label="Weight_Gain <= 20.5\ngini = 0.491\nsamples = 60\nvalue = [40, 52]\nclass = c-section"] ;
790 -> 791 ;
792 [label="Mothers_Height_in_Inches <= 62.5\ngini = 0.469\nsamples = 14\nvalue = [15, 9]\nclass = vaginal"] ;
791 -> 792 ;
793 [label="gini = 0.494\nsamples = 5\nvalue = [5, 4]\nclass = vaginal"] ;
792 -> 793 ;
794 [label="gini = 0.444\nsamples = 9\nvalue = [10, 5]\nclass = vaginal"] ;
792 -> 794 ;
795 [label="Age_of_Mother <= 33.5\ngini = 0.465\nsamples = 46\nvalue = [25, 43]\nclass = c-section"] ;
791 -> 795 ;
796 [label="gini = 0.454\nsamples = 45\nvalue = [23, 43]\nclass = c-section"] ;
795 -> 796 ;
797 [label="gini = 0.0\nsamples = 1\nvalue = [2, 0]\nclass = vaginal"] ;
795 -> 797 ;
798 [label="Pre_Pregnancy_Weight <= 117.5\ngini = 0.5\nsamples = 14\nvalue = [12, 12]\nclass = vaginal"] ;
790 -> 798 ;
799 [label="gini = 0.0\nsamples = 3\nvalue = [0, 6]\nclass = c-section"] ;
798 -> 799 ;
800 [label="Prior_Terminations <= 1.5\ngini = 0.444\nsamples = 11\nvalue = [12, 6]\nclass = vaginal"] ;
798 -> 800 ;
801 [label="gini = 0.408\nsamples = 7\nvalue = [10, 4]\nclass = vaginal"] ;
800 -> 801 ;
802 [label="gini = 0.5\nsamples = 4\nvalue = [2, 2]\nclass = vaginal"] ;
800 -> 802 ;
803 [label="NO_MORBIDITY <= 0.5\ngini = 0.447\nsamples = 104\nvalue = [52, 102]\nclass = c-section"] ;
789 -> 803 ;
804 [label="gini = 0.0\nsamples = 1\nvalue = [2, 0]\nclass = vaginal"] ;
803 -> 804 ;
805 [label="BMI <= 18.15\ngini = 0.441\nsamples = 103\nvalue = [50, 102]\nclass = c-section"] ;
803 -> 805 ;
806 [label="gini = 0.0\nsamples = 2\nvalue = [3, 0]\nclass = vaginal"] ;
805 -> 806 ;
807 [label="Weight_Gain <= 81.5\ngini = 0.432\nsamples = 101\nvalue = [47, 102]\nclass = c-section"] ;
805 -> 807 ;
808 [label="gini = 0.413\nsamples = 98\nvalue = [42, 102]\nclass = c-section"] ;
807 -> 808 ;
809 [label="gini = 0.0\nsamples = 3\nvalue = [5, 0]\nclass = vaginal"] ;
807 -> 809 ;
810 [label="Age_of_Mother <= 20.5\ngini = 0.492\nsamples = 27\nvalue = [22, 17]\nclass = vaginal"] ;
782 -> 810 ;
811 [label="gini = 0.0\nsamples = 2\nvalue = [3, 0]\nclass = vaginal"] ;
810 -> 811 ;
812 [label="Weight_Gain <= 59.5\ngini = 0.498\nsamples = 25\nvalue = [19, 17]\nclass = vaginal"] ;
810 -> 812 ;
813 [label="Weight_Gain <= 52.5\ngini = 0.482\nsamples = 23\nvalue = [19, 13]\nclass = vaginal"] ;
812 -> 813 ;
814 [label="NO_MORBIDITY <= 0.5\ngini = 0.499\nsamples = 21\nvalue = [14, 13]\nclass = vaginal"] ;
813 -> 814 ;
815 [label="gini = 0.0\nsamples = 1\nvalue = [1, 0]\nclass = vaginal"] ;
814 -> 815 ;
816 [label="Age_of_Mother <= 29.5\ngini = 0.5\nsamples = 20\nvalue = [13, 13]\nclass = vaginal"] ;
814 -> 816 ;
817 [label="gini = 0.473\nsamples = 10\nvalue = [5, 8]\nclass = c-section"] ;
816 -> 817 ;
818 [label="gini = 0.473\nsamples = 10\nvalue = [8, 5]\nclass = vaginal"] ;
816 -> 818 ;
819 [label="gini = 0.0\nsamples = 2\nvalue = [5, 0]\nclass = vaginal"] ;
813 -> 819 ;
820 [label="gini = 0.0\nsamples = 2\nvalue = [0, 4]\nclass = c-section"] ;
812 -> 820 ;
821 [label="gini = 0.0\nsamples = 4\nvalue = [5, 0]\nclass = vaginal"] ;
719 -> 821 ;
822 [label="Age_of_Mother <= 14.5\ngini = 0.101\nsamples = 36\nvalue = [53, 3]\nclass = vaginal"] ;
616 -> 822 ;
823 [label="gini = 0.0\nsamples = 1\nvalue = [0, 2]\nclass = c-section"] ;
822 -> 823 ;
824 [label="Pre_Pregnancy_Weight <= 116.5\ngini = 0.036\nsamples = 35\nvalue = [53, 1]\nclass = vaginal"] ;
822 -> 824 ;
825 [label="Weight_Gain <= 41.0\ngini = 0.219\nsamples = 6\nvalue = [7, 1]\nclass = vaginal"] ;
824 -> 825 ;
826 [label="gini = 0.0\nsamples = 4\nvalue = [6, 0]\nclass = vaginal"] ;
825 -> 826 ;
827 [label="BMI <= 20.15\ngini = 0.5\nsamples = 2\nvalue = [1, 1]\nclass = vaginal"] ;
825 -> 827 ;
828 [label="gini = 0.0\nsamples = 1\nvalue = [1, 0]\nclass = vaginal"] ;
827 -> 828 ;
829 [label="gini = 0.0\nsamples = 1\nvalue = [0, 1]\nclass = c-section"] ;
827 -> 829 ;
830 [label="gini = 0.0\nsamples = 29\nvalue = [46, 0]\nclass = vaginal"] ;
824 -> 830 ;
831 [label="Mothers_Height_in_Inches <= 68.5\ngini = 0.363\nsamples = 157\nvalue = [59, 189]\nclass = c-section"] ;
615 -> 831 ;
832 [label="Medical_Attendant <= 2.5\ngini = 0.349\nsamples = 151\nvalue = [54, 186]\nclass = c-section"] ;
831 -> 832 ;
833 [label="Induction_of_labor_N <= 0.5\ngini = 0.298\nsamples = 144\nvalue = [41, 184]\nclass = c-section"] ;
832 -> 833 ;
834 [label="Weight_Gain <= 16.0\ngini = 0.387\nsamples = 62\nvalue = [26, 73]\nclass = c-section"] ;
833 -> 834 ;
835 [label="gini = 0.0\nsamples = 2\nvalue = [5, 0]\nclass = vaginal"] ;
834 -> 835 ;
836 [label="Cigarette_Consumption <= 11.5\ngini = 0.347\nsamples = 60\nvalue = [21, 73]\nclass = c-section"] ;
834 -> 836 ;
837 [label="Prior_Terminations <= 3.5\ngini = 0.361\nsamples = 58\nvalue = [21, 68]\nclass = c-section"] ;
836 -> 837 ;
838 [label="Pre_Pregnancy_Weight <= 134.5\ngini = 0.351\nsamples = 57\nvalue = [20, 68]\nclass = c-section"] ;
837 -> 838 ;
839 [label="BMI <= 19.45\ngini = 0.278\nsamples = 42\nvalue = [11, 55]\nclass = c-section"] ;
838 -> 839 ;
840 [label="gini = 0.0\nsamples = 7\nvalue = [0, 13]\nclass = c-section"] ;
839 -> 840 ;
841 [label="Pre_Pregnancy_Weight <= 114.5\ngini = 0.329\nsamples = 35\nvalue = [11, 42]\nclass = c-section"] ;
839 -> 841 ;
842 [label="Prior_Terminations <= 0.5\ngini = 0.469\nsamples = 6\nvalue = [5, 3]\nclass = vaginal"] ;
841 -> 842 ;
843 [label="Pre_Pregnancy_Weight <= 99.5\ngini = 0.5\nsamples = 5\nvalue = [3, 3]\nclass = vaginal"] ;
842 -> 843 ;
844 [label="gini = 0.0\nsamples = 1\nvalue = [0, 2]\nclass = c-section"] ;
843 -> 844 ;
845 [label="gini = 0.375\nsamples = 4\nvalue = [3, 1]\nclass = vaginal"] ;
843 -> 845 ;
846 [label="gini = 0.0\nsamples = 1\nvalue = [2, 0]\nclass = vaginal"] ;
842 -> 846 ;
847 [label="Marital_Status_  <= 0.5\ngini = 0.231\nsamples = 29\nvalue = [6, 39]\nclass = c-section"] ;
841 -> 847 ;
848 [label="Age_of_Mother <= 35.5\ngini = 0.278\nsamples = 23\nvalue = [6, 30]\nclass = c-section"] ;
847 -> 848 ;
849 [label="gini = 0.444\nsamples = 5\nvalue = [3, 6]\nclass = c-section"] ;
848 -> 849 ;
850 [label="gini = 0.198\nsamples = 18\nvalue = [3, 24]\nclass = c-section"] ;
848 -> 850 ;
851 [label="gini = 0.0\nsamples = 6\nvalue = [0, 9]\nclass = c-section"] ;
847 -> 851 ;
852 [label="Pre_Pregnancy_Weight <= 144.0\ngini = 0.483\nsamples = 15\nvalue = [9, 13]\nclass = c-section"] ;
838 -> 852 ;
853 [label="Prior_Terminations <= 0.5\ngini = 0.498\nsamples = 12\nvalue = [9, 8]\nclass = vaginal"] ;
852 -> 853 ;
854 [label="NO_MORBIDITY <= 0.5\ngini = 0.375\nsamples = 6\nvalue = [2, 6]\nclass = c-section"] ;
853 -> 854 ;
855 [label="gini = 0.0\nsamples = 1\nvalue = [1, 0]\nclass = vaginal"] ;
854 -> 855 ;
856 [label="Pre_Pregnancy_Weight <= 139.0\ngini = 0.245\nsamples = 5\nvalue = [1, 6]\nclass = c-section"] ;
854 -> 856 ;
857 [label="gini = 0.0\nsamples = 3\nvalue = [0, 5]\nclass = c-section"] ;
856 -> 857 ;
858 [label="gini = 0.5\nsamples = 2\nvalue = [1, 1]\nclass = vaginal"] ;
856 -> 858 ;
859 [label="Prior_Terminations <= 1.5\ngini = 0.346\nsamples = 6\nvalue = [7, 2]\nclass = vaginal"] ;
853 -> 859 ;
860 [label="gini = 0.0\nsamples = 5\nvalue = [7, 0]\nclass = vaginal"] ;
859 -> 860 ;
861 [label="gini = 0.0\nsamples = 1\nvalue = [0, 2]\nclass = c-section"] ;
859 -> 861 ;
862 [label="gini = 0.0\nsamples = 3\nvalue = [0, 5]\nclass = c-section"] ;
852 -> 862 ;
863 [label="gini = 0.0\nsamples = 1\nvalue = [1, 0]\nclass = vaginal"] ;
837 -> 863 ;
864 [label="gini = 0.0\nsamples = 2\nvalue = [0, 5]\nclass = c-section"] ;
836 -> 864 ;
865 [label="Prior_Terminations <= 1.5\ngini = 0.21\nsamples = 82\nvalue = [15, 111]\nclass = c-section"] ;
833 -> 865 ;
866 [label="Pre_Pregnancy_Weight <= 97.5\ngini = 0.23\nsamples = 75\nvalue = [15, 98]\nclass = c-section"] ;
865 -> 866 ;
867 [label="gini = 0.0\nsamples = 1\nvalue = [1, 0]\nclass = vaginal"] ;
866 -> 867 ;
868 [label="Marital_Status_  <= 0.5\ngini = 0.219\nsamples = 74\nvalue = [14, 98]\nclass = c-section"] ;
866 -> 868 ;
869 [label="Weight_Gain <= 31.0\ngini = 0.188\nsamples = 60\nvalue = [10, 85]\nclass = c-section"] ;
868 -> 869 ;
870 [label="Weight_Gain <= 27.0\ngini = 0.332\nsamples = 26\nvalue = [8, 30]\nclass = c-section"] ;
869 -> 870 ;
871 [label="BMI <= 18.75\ngini = 0.211\nsamples = 19\nvalue = [3, 22]\nclass = c-section"] ;
870 -> 871 ;
872 [label="gini = 0.0\nsamples = 1\nvalue = [1, 0]\nclass = vaginal"] ;
871 -> 872 ;
873 [label="Pre_Pregnancy_Weight <= 137.5\ngini = 0.153\nsamples = 18\nvalue = [2, 22]\nclass = c-section"] ;
871 -> 873 ;
874 [label="gini = 0.0\nsamples = 13\nvalue = [0, 19]\nclass = c-section"] ;
873 -> 874 ;
875 [label="Mothers_Height_in_Inches <= 64.5\ngini = 0.48\nsamples = 5\nvalue = [2, 3]\nclass = c-section"] ;
873 -> 875 ;
876 [label="gini = 0.0\nsamples = 2\nvalue = [0, 2]\nclass = c-section"] ;
875 -> 876 ;
877 [label="gini = 0.444\nsamples = 3\nvalue = [2, 1]\nclass = vaginal"] ;
875 -> 877 ;
878 [label="Mothers_Height_in_Inches <= 64.0\ngini = 0.473\nsamples = 7\nvalue = [5, 8]\nclass = c-section"] ;
870 -> 878 ;
879 [label="BMI <= 24.35\ngini = 0.49\nsamples = 4\nvalue = [4, 3]\nclass = vaginal"] ;
878 -> 879 ;
880 [label="Age_of_Mother <= 36.5\ngini = 0.32\nsamples = 3\nvalue = [4, 1]\nclass = vaginal"] ;
879 -> 880 ;
881 [label="gini = 0.0\nsamples = 1\nvalue = [2, 0]\nclass = vaginal"] ;
880 -> 881 ;
882 [label="gini = 0.444\nsamples = 2\nvalue = [2, 1]\nclass = vaginal"] ;
880 -> 882 ;
883 [label="gini = 0.0\nsamples = 1\nvalue = [0, 2]\nclass = c-section"] ;
879 -> 883 ;
884 [label="Age_of_Mother <= 36.0\ngini = 0.278\nsamples = 3\nvalue = [1, 5]\nclass = c-section"] ;
878 -> 884 ;
885 [label="gini = 0.0\nsamples = 2\nvalue = [0, 5]\nclass = c-section"] ;
884 -> 885 ;
886 [label="gini = 0.0\nsamples = 1\nvalue = [1, 0]\nclass = vaginal"] ;
884 -> 886 ;
887 [label="BMI <= 23.6\ngini = 0.068\nsamples = 34\nvalue = [2, 55]\nclass = c-section"] ;
869 -> 887 ;
888 [label="gini = 0.0\nsamples = 23\nvalue = [0, 36]\nclass = c-section"] ;
887 -> 888 ;
889 [label="Pre_Pregnancy_Weight <= 141.5\ngini = 0.172\nsamples = 11\nvalue = [2, 19]\nclass = c-section"] ;
887 -> 889 ;
890 [label="gini = 0.0\nsamples = 9\nvalue = [0, 18]\nclass = c-section"] ;
889 -> 890 ;
891 [label="Pre_Pregnancy_Weight <= 144.0\ngini = 0.444\nsamples = 2\nvalue = [2, 1]\nclass = vaginal"] ;
889 -> 891 ;
892 [label="gini = 0.0\nsamples = 1\nvalue = [2, 0]\nclass = vaginal"] ;
891 -> 892 ;
893 [label="gini = 0.0\nsamples = 1\nvalue = [0, 1]\nclass = c-section"] ;
891 -> 893 ;
894 [label="Mothers_Height_in_Inches <= 61.5\ngini = 0.36\nsamples = 14\nvalue = [4, 13]\nclass = c-section"] ;
868 -> 894 ;
895 [label="Pre_Pregnancy_Weight <= 117.0\ngini = 0.375\nsamples = 4\nvalue = [3, 1]\nclass = vaginal"] ;
894 -> 895 ;
896 [label="gini = 0.0\nsamples = 2\nvalue = [2, 0]\nclass = vaginal"] ;
895 -> 896 ;
897 [label="Pre_Pregnancy_Weight <= 124.0\ngini = 0.5\nsamples = 2\nvalue = [1, 1]\nclass = vaginal"] ;
895 -> 897 ;
898 [label="gini = 0.0\nsamples = 1\nvalue = [0, 1]\nclass = c-section"] ;
897 -> 898 ;
899 [label="gini = 0.0\nsamples = 1\nvalue = [1, 0]\nclass = vaginal"] ;
897 -> 899 ;
900 [label="Weight_Gain <= 32.5\ngini = 0.142\nsamples = 10\nvalue = [1, 12]\nclass = c-section"] ;
894 -> 900 ;
901 [label="gini = 0.0\nsamples = 7\nvalue = [0, 10]\nclass = c-section"] ;
900 -> 901 ;
902 [label="BMI <= 21.3\ngini = 0.444\nsamples = 3\nvalue = [1, 2]\nclass = c-section"] ;
900 -> 902 ;
903 [label="gini = 0.0\nsamples = 2\nvalue = [0, 2]\nclass = c-section"] ;
902 -> 903 ;
904 [label="gini = 0.0\nsamples = 1\nvalue = [1, 0]\nclass = vaginal"] ;
902 -> 904 ;
905 [label="gini = 0.0\nsamples = 7\nvalue = [0, 13]\nclass = c-section"] ;
865 -> 905 ;
906 [label="Mothers_Height_in_Inches <= 67.5\ngini = 0.231\nsamples = 7\nvalue = [13, 2]\nclass = vaginal"] ;
832 -> 906 ;
907 [label="gini = 0.0\nsamples = 6\nvalue = [13, 0]\nclass = vaginal"] ;
906 -> 907 ;
908 [label="gini = 0.0\nsamples = 1\nvalue = [0, 2]\nclass = c-section"] ;
906 -> 908 ;
909 [label="BMI <= 19.15\ngini = 0.469\nsamples = 6\nvalue = [5, 3]\nclass = vaginal"] ;
831 -> 909 ;
910 [label="gini = 0.0\nsamples = 1\nvalue = [3, 0]\nclass = vaginal"] ;
909 -> 910 ;
911 [label="Weight_Gain <= 28.5\ngini = 0.48\nsamples = 5\nvalue = [2, 3]\nclass = c-section"] ;
909 -> 911 ;
912 [label="gini = 0.0\nsamples = 2\nvalue = [0, 2]\nclass = c-section"] ;
911 -> 912 ;
913 [label="Mothers_Height_in_Inches <= 84.0\ngini = 0.444\nsamples = 3\nvalue = [2, 1]\nclass = vaginal"] ;
911 -> 913 ;
914 [label="Induction_of_labor_N <= 0.5\ngini = 0.5\nsamples = 2\nvalue = [1, 1]\nclass = vaginal"] ;
913 -> 914 ;
915 [label="gini = 0.0\nsamples = 1\nvalue = [1, 0]\nclass = vaginal"] ;
914 -> 915 ;
916 [label="gini = 0.0\nsamples = 1\nvalue = [0, 1]\nclass = c-section"] ;
914 -> 916 ;
917 [label="gini = 0.0\nsamples = 1\nvalue = [1, 0]\nclass = vaginal"] ;
913 -> 917 ;
918 [label="BMI <= 24.65\ngini = 0.479\nsamples = 4469\nvalue = [4268, 2828]\nclass = vaginal"] ;
614 -> 918 ;
919 [label="Medical_Attendant <= 2.5\ngini = 0.471\nsamples = 3812\nvalue = [3760, 2301]\nclass = vaginal"] ;
918 -> 919 ;
920 [label="Weight_Gain <= 40.5\ngini = 0.487\nsamples = 3407\nvalue = [3154, 2275]\nclass = vaginal"] ;
919 -> 920 ;
921 [label="Mothers_Height_in_Inches <= 62.5\ngini = 0.476\nsamples = 2497\nvalue = [2404, 1543]\nclass = vaginal"] ;
920 -> 921 ;
922 [label="NO_MORBIDITY <= 0.5\ngini = 0.497\nsamples = 865\nvalue = [735, 623]\nclass = vaginal"] ;
921 -> 922 ;
923 [label="Induction_of_labor_Y <= 0.5\ngini = 0.278\nsamples = 20\nvalue = [25, 5]\nclass = vaginal"] ;
922 -> 923 ;
924 [label="Weight_Gain <= 25.0\ngini = 0.188\nsamples = 11\nvalue = [17, 2]\nclass = vaginal"] ;
923 -> 924 ;
925 [label="Age_of_Mother <= 27.5\ngini = 0.48\nsamples = 4\nvalue = [3, 2]\nclass = vaginal"] ;
924 -> 925 ;
926 [label="Pre_Pregnancy_Weight <= 114.0\ngini = 0.444\nsamples = 2\nvalue = [1, 2]\nclass = c-section"] ;
925 -> 926 ;
927 [label="gini = 0.0\nsamples = 1\nvalue = [0, 2]\nclass = c-section"] ;
926 -> 927 ;
928 [label="gini = 0.0\nsamples = 1\nvalue = [1, 0]\nclass = vaginal"] ;
926 -> 928 ;
929 [label="gini = 0.0\nsamples = 2\nvalue = [2, 0]\nclass = vaginal"] ;
925 -> 929 ;
930 [label="gini = 0.0\nsamples = 7\nvalue = [14, 0]\nclass = vaginal"] ;
924 -> 930 ;
931 [label="Age_of_Mother <= 20.0\ngini = 0.397\nsamples = 9\nvalue = [8, 3]\nclass = vaginal"] ;
923 -> 931 ;
932 [label="Mothers_Height_in_Inches <= 60.0\ngini = 0.444\nsamples = 3\nvalue = [1, 2]\nclass = c-section"] ;
931 -> 932 ;
933 [label="gini = 0.0\nsamples = 1\nvalue = [1, 0]\nclass = vaginal"] ;
932 -> 933 ;
934 [label="gini = 0.0\nsamples = 2\nvalue = [0, 2]\nclass = c-section"] ;
932 -> 934 ;
935 [label="Mothers_Height_in_Inches <= 60.5\ngini = 0.219\nsamples = 6\nvalue = [7, 1]\nclass = vaginal"] ;
931 -> 935 ;
936 [label="gini = 0.0\nsamples = 1\nvalue = [0, 1]\nclass = c-section"] ;
935 -> 936 ;
937 [label="gini = 0.0\nsamples = 5\nvalue = [7, 0]\nclass = vaginal"] ;
935 -> 937 ;
938 [label="Cigarette_Consumption <= 3.0\ngini = 0.498\nsamples = 845\nvalue = [710, 618]\nclass = vaginal"] ;
922 -> 938 ;
939 [label="Prior_Terminations <= 4.5\ngini = 0.496\nsamples = 800\nvalue = [688, 576]\nclass = vaginal"] ;
938 -> 939 ;
940 [label="Weight_Gain <= 11.5\ngini = 0.496\nsamples = 798\nvalue = [687, 573]\nclass = vaginal"] ;
939 -> 940 ;
941 [label="Weight_Gain <= 5.5\ngini = 0.36\nsamples = 40\nvalue = [39, 12]\nclass = vaginal"] ;
940 -> 941 ;
942 [label="Age_of_Mother <= 27.5\ngini = 0.43\nsamples = 11\nvalue = [11, 5]\nclass = vaginal"] ;
941 -> 942 ;
943 [label="gini = 0.0\nsamples = 6\nvalue = [11, 0]\nclass = vaginal"] ;
942 -> 943 ;
944 [label="gini = 0.0\nsamples = 5\nvalue = [0, 5]\nclass = c-section"] ;
942 -> 944 ;
945 [label="Weight_Gain <= 7.5\ngini = 0.32\nsamples = 29\nvalue = [28, 7]\nclass = vaginal"] ;
941 -> 945 ;
946 [label="gini = 0.0\nsamples = 8\nvalue = [10, 0]\nclass = vaginal"] ;
945 -> 946 ;
947 [label="Marital_Status_  <= 0.5\ngini = 0.403\nsamples = 21\nvalue = [18, 7]\nclass = vaginal"] ;
945 -> 947 ;
948 [label="Induction_of_labor_N <= 0.5\ngini = 0.444\nsamples = 18\nvalue = [14, 7]\nclass = vaginal"] ;
947 -> 948 ;
949 [label="gini = 0.0\nsamples = 4\nvalue = [4, 0]\nclass = vaginal"] ;
948 -> 949 ;
950 [label="gini = 0.484\nsamples = 14\nvalue = [10, 7]\nclass = vaginal"] ;
948 -> 950 ;
951 [label="gini = 0.0\nsamples = 3\nvalue = [4, 0]\nclass = vaginal"] ;
947 -> 951 ;
952 [label="BMI <= 16.05\ngini = 0.497\nsamples = 758\nvalue = [648, 561]\nclass = vaginal"] ;
940 -> 952 ;
953 [label="gini = 0.0\nsamples = 4\nvalue = [10, 0]\nclass = vaginal"] ;
952 -> 953 ;
954 [label="Cigarette_Consumption <= 0.5\ngini = 0.498\nsamples = 754\nvalue = [638, 561]\nclass = vaginal"] ;
952 -> 954 ;
955 [label="Prior_Terminations <= 0.5\ngini = 0.498\nsamples = 748\nvalue = [632, 559]\nclass = vaginal"] ;
954 -> 955 ;
956 [label="BMI <= 24.05\ngini = 0.497\nsamples = 632\nvalue = [534, 461]\nclass = vaginal"] ;
955 -> 956 ;
957 [label="gini = 0.499\nsamples = 577\nvalue = [477, 437]\nclass = vaginal"] ;
956 -> 957 ;
958 [label="gini = 0.417\nsamples = 55\nvalue = [57, 24]\nclass = vaginal"] ;
956 -> 958 ;
959 [label="Medical_Attendant <= 1.5\ngini = 0.5\nsamples = 116\nvalue = [98, 98]\nclass = vaginal"] ;
955 -> 959 ;
960 [label="gini = 0.5\nsamples = 110\nvalue = [95, 90]\nclass = vaginal"] ;
959 -> 960 ;
961 [label="gini = 0.397\nsamples = 6\nvalue = [3, 8]\nclass = c-section"] ;
959 -> 961 ;
962 [label="Mothers_Height_in_Inches <= 61.0\ngini = 0.375\nsamples = 6\nvalue = [6, 2]\nclass = vaginal"] ;
954 -> 962 ;
963 [label="gini = 0.0\nsamples = 2\nvalue = [4, 0]\nclass = vaginal"] ;
962 -> 963 ;
964 [label="Age_of_Mother <= 18.0\ngini = 0.5\nsamples = 4\nvalue = [2, 2]\nclass = vaginal"] ;
962 -> 964 ;
965 [label="gini = 0.0\nsamples = 1\nvalue = [0, 1]\nclass = c-section"] ;
964 -> 965 ;
966 [label="gini = 0.444\nsamples = 3\nvalue = [2, 1]\nclass = vaginal"] ;
964 -> 966 ;
967 [label="Age_of_Mother <= 27.5\ngini = 0.375\nsamples = 2\nvalue = [1, 3]\nclass = c-section"] ;
939 -> 967 ;
968 [label="gini = 0.0\nsamples = 1\nvalue = [1, 0]\nclass = vaginal"] ;
967 -> 968 ;
969 [label="gini = 0.0\nsamples = 1\nvalue = [0, 3]\nclass = c-section"] ;
967 -> 969 ;
970 [label="BMI <= 23.5\ngini = 0.451\nsamples = 45\nvalue = [22, 42]\nclass = c-section"] ;
938 -> 970 ;
971 [label="Cigarette_Consumption <= 25.5\ngini = 0.472\nsamples = 39\nvalue = [21, 34]\nclass = c-section"] ;
970 -> 971 ;
972 [label="Weight_Gain <= 25.0\ngini = 0.449\nsamples = 34\nvalue = [17, 33]\nclass = c-section"] ;
971 -> 972 ;
973 [label="Induction_of_labor_N <= 0.5\ngini = 0.499\nsamples = 13\nvalue = [11, 10]\nclass = vaginal"] ;
972 -> 973 ;
974 [label="gini = 0.0\nsamples = 3\nvalue = [0, 4]\nclass = c-section"] ;
973 -> 974 ;
975 [label="Weight_Gain <= 11.5\ngini = 0.457\nsamples = 10\nvalue = [11, 6]\nclass = vaginal"] ;
973 -> 975 ;
976 [label="gini = 0.0\nsamples = 2\nvalue = [0, 4]\nclass = c-section"] ;
975 -> 976 ;
977 [label="Mothers_Height_in_Inches <= 61.5\ngini = 0.26\nsamples = 8\nvalue = [11, 2]\nclass = vaginal"] ;
975 -> 977 ;
978 [label="gini = 0.0\nsamples = 4\nvalue = [9, 0]\nclass = vaginal"] ;
977 -> 978 ;
979 [label="gini = 0.5\nsamples = 4\nvalue = [2, 2]\nclass = vaginal"] ;
977 -> 979 ;
